{"learner":{"attributes":{},"feature_names":["MarriedID","MaritalStatusID","GenderID","DeptID","PerfScoreID","Salary","PositionID","EmpSatisfaction","Absences","Age"],"feature_types":["int","int","int","int","int","int","int","int","int","int"],"gradient_booster":{"model":{"gbtree_model_param":{"num_parallel_tree":"1","num_trees":"100"},"iteration_indptr":[0,1,2,3,4,5,6,7,8,9,10,11,12,13,14,15,16,17,18,19,20,21,22,23,24,25,26,27,28,29,30,31,32,33,34,35,36,37,38,39,40,41,42,43,44,45,46,47,48,49,50,51,52,53,54,55,56,57,58,59,60,61,62,63,64,65,66,67,68,69,70,71,72,73,74,75,76,77,78,79,80,81,82,83,84,85,86,87,88,89,90,91,92,93,94,95,96,97,98,99,100],"tree_info":[0,0,0,0,0,0,0,0,0,0,0,0,0,0,0,0,0,0,0,0,0,0,0,0,0,0,0,0,0,0,0,0,0,0,0,0,0,0,0,0,0,0,0,0,0,0,0,0,0,0,0,0,0,0,0,0,0,0,0,0,0,0,0,0,0,0,0,0,0,0,0,0,0,0,0,0,0,0,0,0,0,0,0,0,0,0,0,0,0,0,0,0,0,0,0,0,0,0,0,0],"trees":[{"base_weights":[-5.0709635E-1,-7.3017037E-1,2.3922853E-2,-9.354106E-1,-2.1447907E-1,-5.992118E-1,8.535263E-1,-1.4521743E-2,-9.992617E-2,-8.024802E-2,2.5480209E-2,3.3296894E-2,-9.151431E-2,-1.4521743E-2,1.2780024E-1],"categories":[],"categories_nodes":[],"categories_segments":[],"categories_sizes":[],"default_left":[0,0,0,0,0,0,0,0,0,0,0,0,0,0,0],"id":0,"left_children":[1,3,5,7,9,11,13,-1,-1,-1,-1,-1,-1,-1,-1],"loss_changes":[2.9797316E0,1.666542E0,4.8362E0,4.7657013E-1,1.9483371E0,1.884716E0,1.8817394E0,0E0,0E0,0E0,0E0,0E0,0E0,0E0,0E0],"parents":[2147483647,0,0,1,1,2,2,3,3,4,4,5,5,6,6],"right_children":[2,4,6,8,10,12,14,-1,-1,-1,-1,-1,-1,-1,-1],"split_conditions":[4.6E1,1.5E1,7.1707E4,5.0482E4,1E0,5.2087E4,9E0,-1.4521743E-2,-9.992617E-2,-8.024802E-2,2.5480209E-2,3.3296894E-2,-9.151431E-2,-1.4521743E-2,1.2780024E-1],"split_indices":[9,8,5,5,1,5,8,0,0,0,0,0,0,0,0],"split_type":[0,0,0,0,0,0,0,0,0,0,0,0,0,0,0],"sum_hessian":[2.4007166E1,1.664133E1,7.3658347E0,1.1321561E1,5.31977E0,4.364939E0,3.0008957E0,1.0912348E0,1.0230327E1,2.0460653E0,3.2737045E0,1.0912348E0,3.2737045E0,1.0912348E0,1.9096609E0],"tree_param":{"num_deleted":"0","num_feature":"10","num_nodes":"15","size_leaf_vector":"1"}},{"base_weights":[-4.7787812E-1,4.3929422E-1,-5.883674E-1,8.05865E-2,-1.40327215E-2,-7.1975297E-1,3.7307724E-1,-1.0064391E-1,-1.8910512E-2,8.3528705E-2,-2.1947606E-2],"categories":[],"categories_nodes":[],"categories_segments":[],"categories_sizes":[],"default_left":[0,0,0,0,0,0,0,0,0,0,0],"id":1,"left_children":[1,3,5,-1,-1,7,9,-1,-1,-1,-1],"loss_changes":[2.71551E0,7.886093E-1,3.0559897E0,0E0,0E0,2.8150148E0,1.0903156E0,0E0,0E0,0E0,0E0],"parents":[2147483647,0,0,1,1,2,2,5,5,6,6],"right_children":[2,4,6,-1,-1,8,10,-1,-1,-1,-1],"split_conditions":[5.0178E4,1E0,1.00416E5,8.05865E-2,-1.40327215E-2,1.4E1,1.4092E5,-1.0064391E-1,-1.8910512E-2,8.3528705E-2,-2.1947606E-2],"split_indices":[5,2,5,0,0,8,5,0,0,0,0],"split_type":[0,0,0,0,0,0,0,0,0,0,0],"sum_hessian":[2.3246078E1,2.179354E0,2.1066725E1,1.0959262E0,1.0834278E0,1.8755138E1,2.3115857E0,1.1594503E1,7.160635E0,1.06849E0,1.2430955E0],"tree_param":{"num_deleted":"0","num_feature":"10","num_nodes":"11","size_leaf_vector":"1"}},{"base_weights":[-4.4631222E-1,-6.736135E-1,6.54196E-2,-8.812903E-1,-1.9421692E-1,-5.4549223E-1,8.024385E-1,-9.496356E-2,-1.107142E-2,2.6066562E-2,-7.832723E-2,3.0326804E-2,-8.670748E-2,-1.07177505E-2,1.1447745E-1],"categories":[],"categories_nodes":[],"categories_segments":[],"categories_sizes":[],"default_left":[0,0,0,0,0,0,0,0,0,0,0,0,0,0,0],"id":2,"left_children":[1,3,5,7,9,11,13,-1,-1,-1,-1,-1,-1,-1,-1],"loss_changes":[2.7716799E0,1.4542408E0,4.095504E0,4.798956E-1,1.8701302E0,1.6378525E0,1.395232E0,0E0,0E0,0E0,0E0,0E0,0E0,0E0,0E0],"parents":[2147483647,0,0,1,1,2,2,3,3,4,4,5,5,6,6],"right_children":[2,4,6,8,10,12,14,-1,-1,-1,-1,-1,-1,-1,-1],"split_conditions":[4.6E1,1.5E1,7.1707E4,9.9351E4,3.8E1,5.2087E4,9E0,-9.496356E-2,-1.107142E-2,2.6066562E-2,-7.832723E-2,3.0326804E-2,-8.670748E-2,-1.07177505E-2,1.1447745E-1],"split_indices":[9,8,5,5,9,5,8,0,0,0,0,0,0,0,0],"split_type":[0,0,0,0,0,0,0,0,0,0,0,0,0,0,0],"sum_hessian":[2.2449755E1,1.5325934E1,7.1238213E0,1.0108537E1,5.2173977E0,4.037238E0,3.086583E0,9.071574E0,1.0369624E0,3.2585518E0,1.9588459E0,1.1249864E0,2.912252E0,1.031834E0,2.054749E0],"tree_param":{"num_deleted":"0","num_feature":"10","num_nodes":"15","size_leaf_vector":"1"}},{"base_weights":[-4.2063424E-1,-6.4412576E-1,6.271949E-2,1.992376E-2,-7.344725E-1,-5.1978046E-1,7.1996015E-1,-9.264161E-2,-2.8719002E-2,3.8120102E-2,-8.547213E-2,1.0150975E-1,-1.1293697E-2],"categories":[],"categories_nodes":[],"categories_segments":[],"categories_sizes":[],"default_left":[0,0,0,0,0,0,0,0,0,0,0,0,0],"id":3,"left_children":[1,3,5,-1,7,9,11,-1,-1,-1,-1,-1,-1],"loss_changes":[2.5009441E0,1.3398838E0,3.4802551E0,0E0,9.669666E-1,1.7990384E0,1.1547635E0,0E0,0E0,0E0,0E0,0E0,0E0],"parents":[2147483647,0,0,1,1,2,2,4,4,5,5,6,6],"right_children":[2,4,6,-1,8,10,12,-1,-1,-1,-1,-1,-1],"split_conditions":[4.6E1,5.0178E4,7.1707E4,1.992376E-2,1.5E1,5.1259E4,1.9E1,-9.264161E-2,-2.8719002E-2,3.8120102E-2,-8.547213E-2,1.0150975E-1,-1.1293697E-2],"split_indices":[9,5,5,0,8,5,6,0,0,0,0,0,0],"split_type":[0,0,0,0,0,0,0,0,0,0,0,0,0],"sum_hessian":[2.1777452E1,1.466437E1,7.1130824E0,1.3023175E0,1.3362052E1,3.881834E0,3.2312484E0,8.60021E0,4.7618413E0,1.0145657E0,2.8672683E0,2.224309E0,1.0069394E0],"tree_param":{"num_deleted":"0","num_feature":"10","num_nodes":"13","size_leaf_vector":"1"}},{"base_weights":[-3.9462128E-1,-6.1352915E-1,5.9944753E-2,-8.251791E-1,-1.6714336E-1,-4.9452206E-1,6.4670146E-1,-9.712032E-3,-8.97285E-2,4.0151708E-2,-6.0899235E-2,3.5731044E-2,-8.313214E-2,-1.3095793E-2,9.379172E-2],"categories":[],"categories_nodes":[],"categories_segments":[],"categories_sizes":[],"default_left":[0,0,0,0,0,0,0,0,0,0,0,0,0,0,0],"id":4,"left_children":[1,3,5,7,9,11,13,-1,-1,-1,-1,-1,-1,-1,-1],"loss_changes":[2.23695E0,1.2804332E0,2.9543386E0,4.3415308E-1,1.7728603E0,1.654106E0,1.1119637E0,0E0,0E0,0E0,0E0,0E0,0E0,0E0,0E0],"parents":[2147483647,0,0,1,1,2,2,3,3,4,4,5,5,6,6],"right_children":[2,4,6,8,10,12,14,-1,-1,-1,-1,-1,-1,-1,-1],"split_conditions":[4.6E1,1.5E1,7.1707E4,5.0482E4,6.2061E4,5.1259E4,9E0,-9.712032E-3,-8.97285E-2,4.0151708E-2,-6.0899235E-2,3.5731044E-2,-8.313214E-2,-1.3095793E-2,9.379172E-2],"split_indices":[9,8,5,5,5,5,8,0,0,0,0,0,0,0,0],"split_type":[0,0,0,0,0,0,0,0,0,0,0,0,0,0,0],"sum_hessian":[2.1110483E1,1.4012636E1,7.0978465E0,8.929984E0,5.082652E0,3.7301579E0,3.367689E0,1.0162036E0,7.91378E0,2.262321E0,2.820331E0,1.0396856E0,2.6904721E0,1.0674605E0,2.3002284E0],"tree_param":{"num_deleted":"0","num_feature":"10","num_nodes":"15","size_leaf_vector":"1"}},{"base_weights":[-3.713238E-1,3.9514744E-1,-4.8141468E-1,-1.3651894E-2,7.210414E-2,-9.696465E-2,-1.8470147E-1,-5.821987E-2,2.5417307E-2],"categories":[],"categories_nodes":[],"categories_segments":[],"categories_sizes":[],"default_left":[0,0,0,0,0,0,0,0,0],"id":5,"left_children":[1,3,5,-1,-1,-1,7,-1,-1],"loss_changes":[2.0040267E0,6.6135794E-1,2.6090198E0,0E0,0E0,0E0,2.4518576E0,0E0,0E0],"parents":[2147483647,0,0,1,1,2,2,6,6],"right_children":[2,4,6,-1,-1,-1,8,-1,-1],"split_conditions":[5.0178E4,4.7211E4,8E0,-1.3651894E-2,7.210414E-2,-9.696465E-2,6.7251E4,-5.821987E-2,2.5417307E-2],"split_indices":[5,5,8,0,0,0,5,0,0],"split_type":[0,0,0,0,0,0,0,0,0],"sum_hessian":[2.0495193E1,2.2488737E0,1.8246319E1,1.0754571E0,1.1734166E0,6.0399017E0,1.2206418E1,6.2337847E0,5.972633E0],"tree_param":{"num_deleted":"0","num_feature":"10","num_nodes":"9","size_leaf_vector":"1"}},{"base_weights":[-3.480359E-1,-5.6229943E-1,7.167613E-2,-7.3492694E-1,-4.671738E-2,-4.536513E-1,5.807343E-1,-7.965982E-2,-8.2784295E-3,-7.38015E-2,6.26401E-2,3.0835453E-2,-7.899549E-2,8.24245E-2,-1.2567497E-2],"categories":[],"categories_nodes":[],"categories_segments":[],"categories_sizes":[],"default_left":[0,0,0,0,0,0,0,0,0,0,0,0,0,0,0],"id":6,"left_children":[1,3,5,7,9,11,13,-1,-1,-1,-1,-1,-1,-1,-1],"loss_changes":[1.9232624E0,1.2094803E0,2.3930457E0,3.5239077E-1,2.590355E0,1.3917859E0,8.7472785E-1,0E0,0E0,0E0,0E0,0E0,0E0,0E0,0E0],"parents":[2147483647,0,0,1,1,2,2,3,3,4,4,5,5,6,6],"right_children":[2,4,6,8,10,12,14,-1,-1,-1,-1,-1,-1,-1,-1],"split_conditions":[4.6E1,1.6E1,7.1707E4,1.00031E5,1E0,5.1259E4,1.9E1,-7.965982E-2,-8.2784295E-3,-7.38015E-2,6.26401E-2,3.0835453E-2,-7.899549E-2,8.24245E-2,-1.2567497E-2],"split_indices":[9,8,5,5,0,5,6,0,0,0,0,0,0,0,0],"split_type":[0,0,0,0,0,0,0,0,0,0,0,0,0,0,0],"sum_hessian":[1.9938288E1,1.2974872E1,6.9634156E0,9.401593E0,3.5732787E0,3.4805112E0,3.4829044E0,8.386953E0,1.0146396E0,1.7152708E0,1.8580078E0,1.0911839E0,2.3893273E0,2.466019E0,1.0168856E0],"tree_param":{"num_deleted":"0","num_feature":"10","num_nodes":"15","size_leaf_vector":"1"}},{"base_weights":[-3.2706487E-1,3.881671E-1,-4.3725199E-1,6.866381E-2,-1.3002294E-2,-9.3612455E-2,-1.5750578E-1,-5.317962E-2,2.2332415E-2],"categories":[],"categories_nodes":[],"categories_segments":[],"categories_sizes":[],"default_left":[0,0,0,0,0,0,0,0,0],"id":7,"left_children":[1,3,5,-1,-1,-1,7,-1,-1],"loss_changes":[1.777632E0,5.924504E-1,2.3854108E0,0E0,0E0,0E0,1.9476672E0,0E0,0E0],"parents":[2147483647,0,0,1,1,2,2,6,6],"right_children":[2,4,6,-1,-1,-1,8,-1,-1],"split_conditions":[5.0178E4,5E0,8E0,6.866381E-2,-1.3002294E-2,-9.3612455E-2,6.7251E4,-5.317962E-2,2.2332415E-2],"split_indices":[5,7,8,0,0,0,5,0,0],"split_type":[0,0,0,0,0,0,0,0,0],"sum_hessian":[1.940247E1,2.2533064E0,1.7149164E1,1.2235099E0,1.0297966E0,5.3184376E0,1.1830726E1,5.766668E0,6.064058E0],"tree_param":{"num_deleted":"0","num_feature":"10","num_nodes":"9","size_leaf_vector":"1"}},{"base_weights":[-3.0626264E-1,-5.1485777E-1,8.114619E-2,-2.458335E-1,-9.010484E-2,-4.140692E-1,5.222534E-1,-8.143581E-2,9.416849E-3,2.778532E-2,-7.514321E-2,-1.0720371E-2,7.3327325E-2],"categories":[],"categories_nodes":[],"categories_segments":[],"categories_sizes":[],"default_left":[0,0,0,0,0,0,0,0,0,0,0,0,0],"id":8,"left_children":[1,3,5,7,-1,9,11,-1,-1,-1,-1,-1,-1],"loss_changes":[1.6518048E0,1.1381032E0,1.9281355E0,1.8334863E0,0E0,1.2007947E0,6.8789756E-1,0E0,0E0,0E0,0E0,0E0,0E0],"parents":[2147483647,0,0,1,1,2,2,3,3,5,5,6,6],"right_children":[2,4,6,8,-1,10,12,-1,-1,-1,-1,-1,-1],"split_conditions":[4.6E1,3.9E1,7.1707E4,3.4E1,-9.010484E-2,5.1259E4,9E0,-8.143581E-2,9.416849E-3,2.778532E-2,-7.514321E-2,-1.0720371E-2,7.3327325E-2],"split_indices":[9,9,5,9,0,5,8,0,0,0,0,0,0],"split_type":[0,0,0,0,0,0,0,0,0,0,0,0,0],"sum_hessian":[1.8923206E1,1.2086444E1,6.836763E0,8.088485E0,3.9979599E0,3.2497168E0,3.587046E0,2.5048742E0,5.58361E0,1.1229573E0,2.1267593E0,1.0241259E0,2.56292E0],"tree_param":{"num_deleted":"0","num_feature":"10","num_nodes":"13","size_leaf_vector":"1"}},{"base_weights":[-2.9028115E-1,-5.0247216E-1,8.173129E-2,-7.9236674E-1,2.7445891E-1,-5.558843E-1,4.7057104E-1,-8.7021284E-2,-8.732512E-3,-3.6492392E-2,8.694392E-2,-1.5650522E-2,-6.740024E-2,1.1952668E-1,-1.3374805E-2],"categories":[],"categories_nodes":[],"categories_segments":[],"categories_sizes":[],"default_left":[0,0,0,0,0,0,0,0,0,0,0,0,0,0,0],"id":9,"left_children":[1,3,5,7,9,11,13,-1,-1,-1,-1,-1,-1,-1,-1],"loss_changes":[1.581813E0,3.048365E0,2.2325037E0,4.4051933E-1,1.8991348E0,5.820179E-2,2.559659E0,0E0,0E0,0E0,0E0,0E0,0E0,0E0,0E0],"parents":[2147483647,0,0,1,1,2,2,3,3,4,4,5,5,6,6],"right_children":[2,4,6,8,10,12,14,-1,-1,-1,-1,-1,-1,-1,-1],"split_conditions":[1.5E1,4.9E1,1E0,2.2E1,7.264E4,8E0,6.2061E4,-8.7021284E-2,-8.732512E-3,-3.6492392E-2,8.694392E-2,-1.5650522E-2,-6.740024E-2,1.1952668E-1,-1.3374805E-2],"split_indices":[8,9,1,6,5,6,5,0,0,0,0,0,0,0,0],"split_type":[0,0,0,0,0,0,0,0,0,0,0,0,0,0,0],"sum_hessian":[1.85185E1,1.1569005E1,6.949495E0,8.410825E0,3.15818E0,2.4698546E0,4.4796405E0,7.363521E0,1.0473036E0,1.7086635E0,1.4495167E0,1.0944172E0,1.3754374E0,1.5922959E0,2.8873446E0],"tree_param":{"num_deleted":"0","num_feature":"10","num_nodes":"15","size_leaf_vector":"1"}},{"base_weights":[-2.703643E-1,4.0140685E-1,-3.8276064E-1,6.678847E-2,-9.469098E-3,-8.954575E-2,-1.22207776E-1,-4.7545172E-2,2.0872071E-2],"categories":[],"categories_nodes":[],"categories_segments":[],"categories_sizes":[],"default_left":[0,0,0,0,0,0,0,0,0],"id":10,"left_children":[1,3,5,-1,-1,-1,7,-1,-1],"loss_changes":[1.5938778E0,4.8920667E-1,2.141824E0,0E0,0E0,0E0,1.5408357E0,0E0,0E0],"parents":[2147483647,0,0,1,1,2,2,6,6],"right_children":[2,4,6,-1,-1,-1,8,-1,-1],"split_conditions":[5.0178E4,1E0,8E0,6.678847E-2,-9.469098E-3,-8.954575E-2,6.7251E4,-4.7545172E-2,2.0872071E-2],"split_indices":[5,2,8,0,0,0,5,0,0],"split_type":[0,0,0,0,0,0,0,0,0],"sum_hessian":[1.8074799E1,2.2221408E0,1.5852658E1,1.2203541E0,1.0017867E0,4.5205984E0,1.133206E1,5.269985E0,6.062075E0],"tree_param":{"num_deleted":"0","num_feature":"10","num_nodes":"9","size_leaf_vector":"1"}},{"base_weights":[-2.5276837E-1,3.734897E-1,-3.619511E-1,6.557752E-2,-1.2619498E-2,-8.766031E-2,-1.1360052E-1,-3.6743987E-2,2.9187996E-2],"categories":[],"categories_nodes":[],"categories_segments":[],"categories_sizes":[],"default_left":[0,0,0,0,0,0,0,0,0],"id":11,"left_children":[1,3,5,-1,-1,-1,7,-1,-1],"loss_changes":[1.4125704E0,5.433818E-1,1.998616E0,0E0,0E0,0E0,1.3651829E0,0E0,0E0],"parents":[2147483647,0,0,1,1,2,2,6,6],"right_children":[2,4,6,-1,-1,-1,8,-1,-1],"split_conditions":[5.0178E4,5E0,8E0,6.557752E-2,-1.2619498E-2,-8.766031E-2,4.6E1,-3.6743987E-2,2.9187996E-2],"split_indices":[5,7,8,0,0,0,9,0,0],"split_type":[0,0,0,0,0,0,0,0,0],"sum_hessian":[1.768162E1,2.2656085E0,1.5416012E1,1.2481285E0,1.0174799E0,4.1943803E0,1.1221631E1,6.958979E0,4.262652E0],"tree_param":{"num_deleted":"0","num_feature":"10","num_nodes":"9","size_leaf_vector":"1"}},{"base_weights":[-2.3555914E-1,-4.4096947E-1,9.381139E-2,-7.399874E-1,2.748327E-1,-5.351778E-1,4.631179E-1,-8.244551E-2,-6.775416E-3,-3.2739628E-2,7.816555E-2,-1.496245E-2,-6.51099E-2,1.126166E-1,-1.1803073E-2],"categories":[],"categories_nodes":[],"categories_segments":[],"categories_sizes":[],"default_left":[0,0,0,0,0,0,0,0,0,0,0,0,0,0,0],"id":12,"left_children":[1,3,5,7,9,11,13,-1,-1,-1,-1,-1,-1,-1,-1],"loss_changes":[1.2797962E0,2.6539507E0,2.0725963E0,4.180746E-1,1.5081592E0,5.319494E-2,2.2466593E0,0E0,0E0,0E0,0E0,0E0,0E0,0E0,0E0],"parents":[2147483647,0,0,1,1,2,2,3,3,4,4,5,5,6,6],"right_children":[2,4,6,8,10,12,14,-1,-1,-1,-1,-1,-1,-1,-1],"split_conditions":[1.5E1,4.9E1,1E0,2.1E1,7.264E4,8E0,6.2061E4,-8.244551E-2,-6.775416E-3,-3.2739628E-2,7.816555E-2,-1.496245E-2,-6.51099E-2,1.126166E-1,-1.1803073E-2],"split_indices":[8,9,1,6,5,6,5,0,0,0,0,0,0,0,0],"split_type":[0,0,0,0,0,0,0,0,0,0,0,0,0,0,0],"sum_hessian":[1.7304754E1,1.0449285E1,6.85547E0,7.3465586E0,3.1027257E0,2.3699374E0,4.4855328E0,6.3253245E0,1.0212344E0,1.5796908E0,1.523035E0,1.0773658E0,1.2925717E0,1.6570884E0,2.8284442E0],"tree_param":{"num_deleted":"0","num_feature":"10","num_nodes":"15","size_leaf_vector":"1"}},{"base_weights":[-2.1916898E-1,3.797045E-2,-3.2903853E-1,-8.471102E-2,-9.801063E-2,-7.12721E-2,7.4341646E-3],"categories":[],"categories_nodes":[],"categories_segments":[],"categories_sizes":[],"default_left":[0,0,0,0,0,0,0],"id":13,"left_children":[1,-1,3,-1,5,-1,-1],"loss_changes":[1.3056383E0,0E0,1.7958939E0,0E0,1.3230422E0,0E0,0E0],"parents":[2147483647,0,0,2,2,4,4],"right_children":[2,-1,4,-1,6,-1,-1],"split_conditions":[5.0178E4,3.797045E-2,8E0,-8.471102E-2,5.8523E4,-7.12721E-2,7.4341646E-3],"split_indices":[5,0,8,0,5,0,0],"split_type":[0,0,0,0,0,0,0],"sum_hessian":[1.694434E1,2.2459934E0,1.4698347E1,3.7106493E0,1.0987698E1,1.7195404E0,9.268157E0],"tree_param":{"num_deleted":"0","num_feature":"10","num_nodes":"7","size_leaf_vector":"1"}},{"base_weights":[-2.0725258E-1,3.47346E-1,-3.127149E-1,6.062318E-2,-1.2191776E-2,-8.289426E-2,-9.4203964E-2,-7.107868E-2,7.386626E-3],"categories":[],"categories_nodes":[],"categories_segments":[],"categories_sizes":[],"default_left":[0,0,0,0,0,0,0,0,0],"id":14,"left_children":[1,3,5,-1,-1,-1,7,-1,-1],"loss_changes":[1.143187E0,4.748035E-1,1.657724E0,0E0,0E0,0E0,1.2898351E0,0E0,0E0],"parents":[2147483647,0,0,1,1,2,2,6,6],"right_children":[2,4,6,-1,-1,-1,8,-1,-1],"split_conditions":[5.0178E4,5E0,8E0,6.062318E-2,-1.2191776E-2,-8.289426E-2,3.4E1,-7.107868E-2,7.386626E-3],"split_indices":[5,7,8,0,0,0,9,0,0],"split_type":[0,0,0,0,0,0,0,0,0],"sum_hessian":[1.6688148E1,2.2999203E0,1.4388228E1,1.2941041E0,1.0058162E0,3.4482381E0,1.093999E1,1.6516473E0,9.288343E0],"tree_param":{"num_deleted":"0","num_feature":"10","num_nodes":"9","size_leaf_vector":"1"}},{"base_weights":[-1.9559273E-1,-2.8360015E-1,4.4419013E-2,-7.373313E-1,-3.98699E-2,-1.7215718E-2,-8.7025575E-2,8.5991375E-2,-2.0990951E-2],"categories":[],"categories_nodes":[],"categories_segments":[],"categories_sizes":[],"default_left":[0,0,0,0,0,0,0,0,0],"id":15,"left_children":[1,3,-1,5,7,-1,-1,-1,-1],"loss_changes":[1.1083041E0,1.7341552E0,0E0,2.645402E-1,1.9295049E0,0E0,0E0,0E0,0E0],"parents":[2147483647,0,0,1,1,3,3,4,4],"right_children":[2,4,-1,6,8,-1,-1,-1,-1],"split_conditions":[5.6E1,9E0,4.4419013E-2,3.7E1,1.1E1,-1.7215718E-2,-8.7025575E-2,8.5991375E-2,-2.0990951E-2],"split_indices":[9,8,0,9,8,0,0,0,0],"split_type":[0,0,0,0,0,0,0,0,0],"sum_hessian":[1.6446417E1,1.4947051E1,1.4993662E0,4.515587E0,1.0431464E1,1.2968278E0,3.218759E0,1.0131468E0,9.418318E0],"tree_param":{"num_deleted":"0","num_feature":"10","num_nodes":"9","size_leaf_vector":"1"}},{"base_weights":[-1.7931382E-1,3.5696858E-1,-2.854081E-1,6.0224015E-2,-1.0099347E-2,-8.007943E-2,-8.373068E-2,-3.9161403E-2,2.4455125E-2],"categories":[],"categories_nodes":[],"categories_segments":[],"categories_sizes":[],"default_left":[0,0,0,0,0,0,0,0,0],"id":16,"left_children":[1,3,5,-1,-1,-1,7,-1,-1],"loss_changes":[1.0791893E0,4.2938626E-1,1.4812355E0,0E0,0E0,0E0,1.2907497E0,0E0,0E0],"parents":[2147483647,0,0,1,1,2,2,6,6],"right_children":[2,4,6,-1,-1,-1,8,-1,-1],"split_conditions":[5.0178E4,1E0,8E0,6.0224015E-2,-1.0099347E-2,-8.007943E-2,1E0,-3.9161403E-2,2.4455125E-2],"split_indices":[5,2,8,0,0,0,2,0,0],"split_type":[0,0,0,0,0,0,0,0,0],"sum_hessian":[1.6176939E1,2.2812262E0,1.3895713E1,1.2804235E0,1.0008025E0,3.0727184E0,1.0822994E1,5.4854636E0,5.3375306E0],"tree_param":{"num_deleted":"0","num_feature":"10","num_nodes":"9","size_leaf_vector":"1"}},{"base_weights":[-1.6706748E-1,-7.231407E-2,-5.055968E-2,-3.432044E-1,3.0274755E-1,-6.350573E-2,3.176989E-2,7.5299375E-2,-5.3308643E-2],"categories":[],"categories_nodes":[],"categories_segments":[],"categories_sizes":[],"default_left":[0,0,0,0,0,0,0,0,0],"id":17,"left_children":[1,-1,3,5,7,-1,-1,-1,-1],"loss_changes":[1.0611218E0,0E0,1.663411E0,1.8834462E0,3.1729686E0,0E0,0E0,0E0,0E0],"parents":[2147483647,0,0,2,2,3,3,4,4],"right_children":[2,-1,4,6,8,-1,-1,-1,-1],"split_conditions":[3.4E1,-7.231407E-2,1.4E1,8.2758E4,7.4417E4,-6.350573E-2,3.176989E-2,7.5299375E-2,-5.3308643E-2],"split_indices":[9,0,8,5,5,0,0,0,0],"split_type":[0,0,0,0,0,0,0,0,0],"sum_hessian":[1.5942998E1,1.8597773E0,1.40832205E1,7.7185407E0,6.3646793E0,5.3812876E0,2.3372536E0,4.20087E0,2.1638095E0],"tree_param":{"num_deleted":"0","num_feature":"10","num_nodes":"9","size_leaf_vector":"1"}},{"base_weights":[-1.5826395E-1,-3.5059157E-1,1.3987762E-1,-6.533947E-2,-8.16582E-2,-3.0217564E-1,4.5872134E-1,-7.3206626E-2,2.920171E-2,3.3513267E-2,-6.747523E-2,9.0758514E-4,8.709746E-2],"categories":[],"categories_nodes":[],"categories_segments":[],"categories_sizes":[],"default_left":[0,0,0,0,0,0,0,0,0,0,0,0,0],"id":18,"left_children":[1,3,5,7,-1,9,11,-1,-1,-1,-1,-1,-1],"loss_changes":[1.0100912E0,1.3388048E0,1.1656919E0,2.0206106E0,0E0,1.0943305E0,8.504647E-1,0E0,0E0,0E0,0E0,0E0,0E0],"parents":[2147483647,0,0,1,1,2,2,3,3,5,5,6,6],"right_children":[2,4,6,8,-1,10,12,-1,-1,-1,-1,-1,-1],"split_conditions":[4.6E1,3.9E1,7.1707E4,1.9E1,-8.16582E-2,4.9773E4,5E0,-7.3206626E-2,2.920171E-2,3.3513267E-2,-6.747523E-2,9.0758514E-4,8.709746E-2],"split_indices":[9,9,5,6,0,5,3,0,0,0,0,0,0],"split_type":[0,0,0,0,0,0,0,0,0,0,0,0,0],"sum_hessian":[1.57603245E1,9.473292E0,6.287032E0,6.583484E0,2.889808E0,2.6564028E0,3.6306293E0,1.9314264E0,4.652058E0,1.0171037E0,1.639299E0,2.2253983E0,1.4052312E0],"tree_param":{"num_deleted":"0","num_feature":"10","num_nodes":"13","size_leaf_vector":"1"}},{"base_weights":[-1.4973946E-1,-6.956176E-2,-3.9602622E-2,-3.133833E-1,2.737663E-1,-6.0200937E-2,2.966002E-2,6.643304E-2,-5.034555E-2],"categories":[],"categories_nodes":[],"categories_segments":[],"categories_sizes":[],"default_left":[0,0,0,0,0,0,0,0,0],"id":19,"left_children":[1,-1,3,5,7,-1,-1,-1,-1],"loss_changes":[9.675068E-1,0E0,1.3583375E0,1.6543629E0,2.5959287E0,0E0,0E0,0E0,0E0],"parents":[2147483647,0,0,2,2,3,3,4,4],"right_children":[2,-1,4,6,8,-1,-1,-1,-1],"split_conditions":[3.4E1,-6.956176E-2,1.4E1,8.2758E4,7.4417E4,-6.0200937E-2,2.966002E-2,6.643304E-2,-5.034555E-2],"split_indices":[9,0,8,5,5,0,0,0,0],"split_type":[0,0,0,0,0,0,0,0,0],"sum_hessian":[1.5550795E1,1.7183064E0,1.3832488E1,7.3825436E0,6.4499445E0,5.0202045E0,2.362339E0,4.389442E0,2.0605023E0],"tree_param":{"num_deleted":"0","num_feature":"10","num_nodes":"9","size_leaf_vector":"1"}},{"base_weights":[-1.4243336E-1,-2.2976062E-1,4.3934785E-2,-6.696742E-1,-1.989771E-2,-9.635298E-3,-8.200116E-2,8.116874E-2,-1.8568119E-2],"categories":[],"categories_nodes":[],"categories_segments":[],"categories_sizes":[],"default_left":[0,0,0,0,0,0,0,0,0],"id":20,"left_children":[1,3,-1,5,7,-1,-1,-1,-1],"loss_changes":[9.332948E-1,1.362407E0,0E0,3.3317733E-1,1.6836555E0,0E0,0E0,0E0,0E0],"parents":[2147483647,0,0,1,1,3,3,4,4],"right_children":[2,4,-1,6,8,-1,-1,-1,-1],"split_conditions":[5.6E1,9E0,4.3934785E-2,3.7E1,1.1E1,-9.635298E-3,-8.200116E-2,8.116874E-2,-1.8568119E-2],"split_indices":[9,8,0,9,8,0,0,0,0],"split_type":[0,0,0,0,0,0,0,0,0],"sum_hessian":[1.5383117E1,1.3901526E1,1.4815904E0,3.782229E0,1.0119297E1,1.1266372E0,2.6555917E0,1.0344303E0,9.0848675E0],"tree_param":{"num_deleted":"0","num_feature":"10","num_nodes":"9","size_leaf_vector":"1"}},{"base_weights":[-1.295638E-1,3.7903693E-2,-2.3762725E-1,-7.514583E-2,-5.9895463E-2,-3.5893023E-2,2.453715E-2],"categories":[],"categories_nodes":[],"categories_segments":[],"categories_sizes":[],"default_left":[0,0,0,0,0,0,0],"id":21,"left_children":[1,-1,3,-1,5,-1,-1],"loss_changes":[9.792335E-1,0E0,1.2296638E0,0E0,1.1339433E0,0E0,0E0],"parents":[2147483647,0,0,2,2,4,4],"right_children":[2,-1,4,-1,6,-1,-1],"split_conditions":[5.0178E4,3.7903693E-2,8E0,-7.514583E-2,1E0,-3.5893023E-2,2.453715E-2],"split_indices":[5,0,8,0,2,0,0],"split_type":[0,0,0,0,0,0,0],"sum_hessian":[1.5178042E1,2.2203631E0,1.295768E1,2.5005176E0,1.0457162E1,5.1937013E0,5.2634606E0],"tree_param":{"num_deleted":"0","num_feature":"10","num_nodes":"7","size_leaf_vector":"1"}},{"base_weights":[-1.21440984E-1,-6.662482E-2,-1.6211454E-2,-2.7395758E-1,2.5971308E-1,-4.941727E-2,4.123046E-2,6.076507E-2,-4.731324E-2],"categories":[],"categories_nodes":[],"categories_segments":[],"categories_sizes":[],"default_left":[0,0,0,0,0,0,0,0,0],"id":22,"left_children":[1,-1,3,5,7,-1,-1,-1,-1],"loss_changes":[9.076954E-1,0E0,1.0990003E0,1.4065747E0,2.1982298E0,0E0,0E0,0E0,0E0],"parents":[2147483647,0,0,2,2,3,3,4,4],"right_children":[2,-1,4,6,8,-1,-1,-1,-1],"split_conditions":[3.4E1,-6.662482E-2,1.4E1,1.00416E5,7.4417E4,-4.941727E-2,4.123046E-2,6.076507E-2,-4.731324E-2],"split_indices":[9,0,8,5,5,0,0,0,0],"split_type":[0,0,0,0,0,0,0,0,0],"sum_hessian":[1.5021267E1,1.5686222E0,1.3452644E1,6.959127E0,6.493518E0,5.4804187E0,1.478708E0,4.5188904E0,1.9746275E0],"tree_param":{"num_deleted":"0","num_feature":"10","num_nodes":"9","size_leaf_vector":"1"}},{"base_weights":[-1.151832E-1,-3.040598E-1,1.6351262E-1,-3.1409226E-2,-7.819707E-2,-2.5356543E-1,4.3958238E-1,-6.860203E-2,2.8584812E-2,2.8325109E-2,-6.2199503E-2,7.988583E-2,2.1593883E-3],"categories":[],"categories_nodes":[],"categories_segments":[],"categories_sizes":[],"default_left":[0,0,0,0,0,0,0,0,0,0,0,0,0],"id":23,"left_children":[1,3,5,7,-1,9,11,-1,-1,-1,-1,-1,-1],"loss_changes":[8.850308E-1,1.2534742E0,9.244242E-1,1.7094843E0,0E0,8.5777813E-1,6.7568094E-1,0E0,0E0,0E0,0E0,0E0,0E0],"parents":[2147483647,0,0,1,1,2,2,3,3,5,5,6,6],"right_children":[2,4,6,8,-1,10,12,-1,-1,-1,-1,-1,-1],"split_conditions":[4.6E1,3.9E1,7.1707E4,1.9E1,-7.819707E-2,5.1259E4,8.3552E4,-6.860203E-2,2.8584812E-2,2.8325109E-2,-6.2199503E-2,7.988583E-2,2.1593883E-3],"split_indices":[9,9,5,6,0,5,5,0,0,0,0,0,0],"split_type":[0,0,0,0,0,0,0,0,0,0,0,0,0],"sum_hessian":[1.4868676E1,8.808205E0,6.060471E0,6.2871027E0,2.521102E0,2.4462562E0,3.614215E0,1.6729287E0,4.614174E0,1.0897055E0,1.3565507E0,1.4535985E0,2.1606164E0],"tree_param":{"num_deleted":"0","num_feature":"10","num_nodes":"13","size_leaf_vector":"1"}},{"base_weights":[-1.1012919E-1,-6.417933E-2,-1.0837087E-2,-2.5054368E-1,2.3562244E-1,-5.329756E-2,2.7612124E-2,-3.5048574E-2,6.23294E-2],"categories":[],"categories_nodes":[],"categories_segments":[],"categories_sizes":[],"default_left":[0,0,0,0,0,0,0,0,0],"id":24,"left_children":[1,-1,3,5,7,-1,-1,-1,-1],"loss_changes":[8.225704E-1,0E0,9.01369E-1,1.2944052E0,1.9328878E0,0E0,0E0,0E0,0E0],"parents":[2147483647,0,0,2,2,3,3,4,4],"right_children":[2,-1,4,6,8,-1,-1,-1,-1],"split_conditions":[3.4E1,-6.417933E-2,1.4E1,8.2758E4,1E0,-5.329756E-2,2.7612124E-2,-3.5048574E-2,6.23294E-2],"split_indices":[9,0,8,5,1,0,0,0,0],"split_type":[0,0,0,0,0,0,0,0,0],"sum_hessian":[1.4713673E1,1.4556483E0,1.3258024E1,6.7126894E0,6.5453353E0,4.361687E0,2.351002E0,2.6439512E0,3.9013839E0],"tree_param":{"num_deleted":"0","num_feature":"10","num_nodes":"9","size_leaf_vector":"1"}},{"base_weights":[-1.0489043E-1,3.6938503E-2,-2.1096681E-1,-4.955369E-1,6.260979E-2,-1.0155461E-2,-7.899662E-2,-3.340022E-2,4.9877364E-2],"categories":[],"categories_nodes":[],"categories_segments":[],"categories_sizes":[],"default_left":[0,0,0,0,0,0,0,0,0],"id":25,"left_children":[1,-1,3,5,7,-1,-1,-1,-1],"loss_changes":[8.614608E-1,0E0,1.0714437E0,6.9263816E-1,1.4988551E0,0E0,0E0,0E0,0E0],"parents":[2147483647,0,0,2,2,3,3,4,4],"right_children":[2,-1,4,6,8,-1,-1,-1,-1],"split_conditions":[5.0178E4,3.6938503E-2,6.8407E4,3.8E1,4E0,-1.0155461E-2,-7.899662E-2,-3.340022E-2,4.9877364E-2],"split_indices":[5,0,5,9,3,0,0,0,0],"split_type":[0,0,0,0,0,0,0,0,0],"sum_hessian":[1.4574274E1,2.2101724E0,1.2364101E1,5.662613E0,6.701489E0,2.997078E0,2.665535E0,3.632561E0,3.0689278E0],"tree_param":{"num_deleted":"0","num_feature":"10","num_nodes":"9","size_leaf_vector":"1"}},{"base_weights":[-9.827283E-2,-1.8457472E-1,4.3409213E-2,-6.078501E-1,-1.8334712E-3,-8.769356E-3,-7.423596E-2,7.8345574E-2,-1.655315E-2],"categories":[],"categories_nodes":[],"categories_segments":[],"categories_sizes":[],"default_left":[0,0,0,0,0,0,0,0,0],"id":26,"left_children":[1,3,-1,5,7,-1,-1,-1,-1],"loss_changes":[7.8953505E-1,1.080894E0,0E0,2.2981608E-1,1.5146056E0,0E0,0E0,0E0,0E0],"parents":[2147483647,0,0,1,1,3,3,4,4],"right_children":[2,4,-1,6,8,-1,-1,-1,-1],"split_conditions":[5.6E1,9E0,4.3409213E-2,5.2599E4,1.1E1,-8.769356E-3,-7.423596E-2,7.8345574E-2,-1.655315E-2],"split_indices":[9,8,0,5,8,0,0,0,0],"split_type":[0,0,0,0,0,0,0,0,0],"sum_hessian":[1.4440777E1,1.29885E1,1.4522777E0,3.2151358E0,9.773363E0,1.0000051E0,2.2151308E0,1.032809E0,8.740555E0],"tree_param":{"num_deleted":"0","num_feature":"10","num_nodes":"9","size_leaf_vector":"1"}},{"base_weights":[-8.8499166E-2,-6.148843E-2,5.948974E-3,-3.3961082E-1,1.6441163E-1,-7.607387E-2,2.4525251E-2,5.7915486E-2,-8.938309E-3],"categories":[],"categories_nodes":[],"categories_segments":[],"categories_sizes":[],"default_left":[0,0,0,0,0,0,0,0,0],"id":27,"left_children":[1,-1,3,5,7,-1,-1,-1,-1],"loss_changes":[7.631115E-1,0E0,8.1929284E-1,1.3465586E0,1.1288564E0,0E0,0E0,0E0,0E0],"parents":[2147483647,0,0,2,2,3,3,4,4],"right_children":[2,-1,4,6,8,-1,-1,-1,-1],"split_conditions":[3.4E1,-6.148843E-2,4E0,1.00416E5,3.8E1,-7.607387E-2,2.4525251E-2,5.7915486E-2,-8.938309E-3],"split_indices":[9,0,3,5,9,0,0,0,0],"split_type":[0,0,0,0,0,0,0,0,0],"sum_hessian":[1.4275807E1,1.3335097E0,1.2942298E1,3.709602E0,9.232696E0,1.9818614E0,1.7277408E0,3.018302E0,6.2143936E0],"tree_param":{"num_deleted":"0","num_feature":"10","num_nodes":"9","size_leaf_vector":"1"}},{"base_weights":[-8.495902E-2,-2.6710013E-1,1.7247413E-1,-1.41622815E-2,-7.44228E-2,-1.7904362E-1,4.6214694E-1,-6.398203E-2,2.5886238E-2,2.774286E-2,-4.378132E-2,-6.4497027E-3,8.617301E-2],"categories":[],"categories_nodes":[],"categories_segments":[],"categories_sizes":[],"default_left":[0,0,0,0,0,0,0,0,0,0,0,0,0],"id":28,"left_children":[1,3,5,7,-1,9,11,-1,-1,-1,-1,-1,-1],"loss_changes":[7.585685E-1,1.110786E0,7.85743E-1,1.3770366E0,0E0,5.750231E-1,9.1083765E-1,0E0,0E0,0E0,0E0,0E0,0E0],"parents":[2147483647,0,0,1,1,2,2,3,3,5,5,6,6],"right_children":[2,4,6,8,-1,10,12,-1,-1,-1,-1,-1,-1],"split_conditions":[4.6E1,3.9E1,1E0,1.9E1,-7.44228E-2,1.2E1,1.4E1,-6.398203E-2,2.5886238E-2,2.774286E-2,-4.378132E-2,-6.4497027E-3,8.617301E-2],"split_indices":[9,9,2,6,0,6,8,0,0,0,0,0,0],"split_type":[0,0,0,0,0,0,0,0,0,0,0,0,0],"sum_hessian":[1.4195424E1,8.291445E0,5.9039793E0,6.0917387E0,2.199706E0,2.8397975E0,3.0641816E0,1.4425551E0,4.6491838E0,1.0013317E0,1.8384658E0,1.6836925E0,1.3804892E0],"tree_param":{"num_deleted":"0","num_feature":"10","num_nodes":"13","size_leaf_vector":"1"}},{"base_weights":[-8.114448E-2,-1.6611317E-1,4.2147577E-2,-5.776416E-1,4.4119325E-3,-8.53802E-3,-7.139775E-2,7.4519716E-2,-1.550171E-2],"categories":[],"categories_nodes":[],"categories_segments":[],"categories_sizes":[],"default_left":[0,0,0,0,0,0,0,0,0],"id":29,"left_children":[1,3,-1,5,7,-1,-1,-1,-1],"loss_changes":[7.1367294E-1,9.5760155E-1,0E0,2.0713973E-1,1.3691381E0,0E0,0E0,0E0,0E0],"parents":[2147483647,0,0,1,1,3,3,4,4],"right_children":[2,4,-1,6,8,-1,-1,-1,-1],"split_conditions":[5.6E1,9E0,4.2147577E-2,5.3018E4,1.1E1,-8.53802E-3,-7.139775E-2,7.4519716E-2,-1.550171E-2],"split_indices":[9,8,0,5,8,0,0,0,0],"split_type":[0,0,0,0,0,0,0,0,0],"sum_hessian":[1.4071546E1,1.2609411E1,1.4621339E0,2.99475E0,9.614661E0,1.0022445E0,1.9925056E0,1.0520694E0,8.5625925E0],"tree_param":{"num_deleted":"0","num_feature":"10","num_nodes":"9","size_leaf_vector":"1"}},{"base_weights":[-7.279059E-2,3.429663E-1,-1.7317142E-1,-9.943053E-3,5.8539778E-2,-4.5194533E-1,8.22289E-2,-7.061654E-3,-7.567381E-2,-2.8911034E-2,4.595813E-2],"categories":[],"categories_nodes":[],"categories_segments":[],"categories_sizes":[],"default_left":[0,0,0,0,0,0,0,0,0,0,0],"id":30,"left_children":[1,3,5,-1,-1,7,9,-1,-1,-1,-1],"loss_changes":[6.824181E-1,4.0557894E-1,9.4065064E-1,0E0,0E0,6.6961944E-1,1.179399E0,0E0,0E0,0E0,0E0],"parents":[2147483647,0,0,1,1,2,2,5,5,6,6],"right_children":[2,4,6,-1,-1,8,10,-1,-1,-1,-1],"split_conditions":[5.0178E4,4.7211E4,6.8407E4,-9.943053E-3,5.8539778E-2,3.8E1,4E0,-7.061654E-3,-7.567381E-2,-2.8911034E-2,4.595813E-2],"split_indices":[5,5,5,0,0,9,3,0,0,0,0],"split_type":[0,0,0,0,0,0,0,0,0,0,0],"sum_hessian":[1.3928498E1,2.2388768E0,1.1689621E1,1.0013827E0,1.237494E0,5.2211204E0,6.4685006E0,2.8665028E0,2.3546178E0,3.378088E0,3.0904126E0],"tree_param":{"num_deleted":"0","num_feature":"10","num_nodes":"11","size_leaf_vector":"1"}},{"base_weights":[-6.782449E-2,-5.8442563E-2,2.0964758E-2,-1.7792417E-1,2.5092414E-1,-5.1693495E-2,3.4702625E-2,-4.4563908E-2,6.200368E-2],"categories":[],"categories_nodes":[],"categories_segments":[],"categories_sizes":[],"default_left":[0,0,0,0,0,0,0,0,0],"id":31,"left_children":[1,-1,3,5,7,-1,-1,-1,-1],"loss_changes":[6.916365E-1,0E0,6.6686904E-1,1.5817854E0,2.00521E0,0E0,0E0,0E0,0E0],"parents":[2147483647,0,0,2,2,3,3,4,4],"right_children":[2,-1,4,6,8,-1,-1,-1,-1],"split_conditions":[3.4E1,-5.8442563E-2,1.5E1,4.9E1,1E0,-5.1693495E-2,3.4702625E-2,-4.4563908E-2,6.200368E-2],"split_indices":[9,0,8,9,1,0,0,0,0],"split_type":[0,0,0,0,0,0,0,0,0],"sum_hessian":[1.3811521E1,1.2069536E0,1.2604568E1,6.8802266E0,5.7243404E0,4.189764E0,2.6904628E0,1.9109001E0,3.8134403E0],"tree_param":{"num_deleted":"0","num_feature":"10","num_nodes":"9","size_leaf_vector":"1"}},{"base_weights":[-6.629706E-2,-5.687964E-2,1.8194875E-2,-3.021472E-1,1.582717E-1,-7.289939E-2,2.476006E-2,-9.553499E-3,4.8495047E-2],"categories":[],"categories_nodes":[],"categories_segments":[],"categories_sizes":[],"default_left":[0,0,0,0,0,0,0,0,0],"id":32,"left_children":[1,-1,3,5,7,-1,-1,-1,-1],"loss_changes":[6.344033E-1,0E0,6.559221E-1,1.2286482E0,8.8251305E-1,0E0,0E0,0E0,0E0],"parents":[2147483647,0,0,2,2,3,3,4,4],"right_children":[2,-1,4,6,8,-1,-1,-1,-1],"split_conditions":[3.4E1,-5.687964E-2,4E0,1.00416E5,1E0,-7.289939E-2,2.476006E-2,-9.553499E-3,4.8495047E-2],"split_indices":[9,0,3,5,0,0,0,0,0],"split_type":[0,0,0,0,0,0,0,0,0],"sum_hessian":[1.3698449E1,1.1467019E0,1.2551747E1,3.4667094E0,9.085038E0,1.7679497E0,1.6987596E0,5.510961E0,3.5740771E0],"tree_param":{"num_deleted":"0","num_feature":"10","num_nodes":"9","size_leaf_vector":"1"}},{"base_weights":[-6.5024465E-2,3.1814724E-2,-1.6038963E-1,-4.2694712E-1,1.2668891E-1,5.2090394E-3,-5.6301773E-2,-1.1469087E-2,6.873234E-2],"categories":[],"categories_nodes":[],"categories_segments":[],"categories_sizes":[],"default_left":[0,0,0,0,0,0,0,0,0],"id":33,"left_children":[1,-1,3,5,7,-1,-1,-1,-1],"loss_changes":[5.8545095E-1,0E0,1.0010965E0,4.6252823E-1,9.895114E-1,0E0,0E0,0E0,0E0],"parents":[2147483647,0,0,2,2,3,3,4,4],"right_children":[2,-1,4,6,8,-1,-1,-1,-1],"split_conditions":[5.0178E4,3.1814724E-2,1E0,9E0,9.9351E4,5.2090394E-3,-5.6301773E-2,-1.1469087E-2,6.873234E-2],"split_indices":[5,0,2,6,5,0,0,0,0],"split_type":[0,0,0,0,0,0,0,0,0],"sum_hessian":[1.3625218E1,2.2497516E0,1.1375466E1,5.6459184E0,5.729548E0,1.385486E0,4.2604322E0,4.5611734E0,1.1683748E0],"tree_param":{"num_deleted":"0","num_feature":"10","num_nodes":"9","size_leaf_vector":"1"}},{"base_weights":[-5.6900233E-2,-5.470202E-2,2.2708483E-2,3.6759284E-1,-1.0758449E-1,-2.0386724E-2,7.404421E-2,-4.5599576E-2,1.4461932E-2],"categories":[],"categories_nodes":[],"categories_segments":[],"categories_sizes":[],"default_left":[0,0,0,0,0,0,0,0,0],"id":34,"left_children":[1,-1,3,5,7,-1,-1,-1,-1],"loss_changes":[5.783191E-1,0E0,6.4335704E-1,9.8422945E-1,9.908948E-1,0E0,0E0,0E0,0E0],"parents":[2147483647,0,0,2,2,3,3,4,4],"right_children":[2,-1,4,6,8,-1,-1,-1,-1],"split_conditions":[3.4E1,-5.470202E-2,3.7E1,1.5E1,4.6E1,-2.0386724E-2,7.404421E-2,-4.5599576E-2,1.4461932E-2],"split_indices":[9,0,9,8,9,0,0,0,0],"split_type":[0,0,0,0,0,0,0,0,0],"sum_hessian":[1.3503554E1,1.0664537E0,1.2437101E1,2.910844E0,9.5262575E0,1.3282597E0,1.5825844E0,3.660858E0,5.8653994E0],"tree_param":{"num_deleted":"0","num_feature":"10","num_nodes":"9","size_leaf_vector":"1"}},{"base_weights":[-5.428543E-2,-5.325354E-2,2.1750184E-2,-2.8969452E-1,1.5512694E-1,-6.993409E-2,2.070493E-2,4.415293E-2,-9.887557E-3],"categories":[],"categories_nodes":[],"categories_segments":[],"categories_sizes":[],"default_left":[0,0,0,0,0,0,0,0,0],"id":35,"left_children":[1,-1,3,5,7,-1,-1,-1,-1],"loss_changes":[5.3552663E-1,0E0,6.0125965E-1,1.032909E0,7.7317375E-1,0E0,0E0,0E0,0E0],"parents":[2147483647,0,0,2,2,3,3,4,4],"right_children":[2,-1,4,6,8,-1,-1,-1,-1],"split_conditions":[3.4E1,-5.325354E-2,4E0,1.00416E5,3.9E1,-6.993409E-2,2.070493E-2,4.415293E-2,-9.887557E-3],"split_indices":[9,0,3,5,9,0,0,0,0],"split_type":[0,0,0,0,0,0,0,0,0],"sum_hessian":[1.3408302E1,1.0157378E0,1.2392565E1,3.3644114E0,9.028153E0,1.6203326E0,1.7440788E0,3.8964243E0,5.131729E0],"tree_param":{"num_deleted":"0","num_feature":"10","num_nodes":"9","size_leaf_vector":"1"}},{"base_weights":[-5.4226875E-2,-1.3259211E-1,3.7370887E-2,-5.349347E-1,2.4191173E-2,-5.8144624E-3,-7.051652E-2,7.143698E-2,-1.3190486E-2],"categories":[],"categories_nodes":[],"categories_segments":[],"categories_sizes":[],"default_left":[0,0,0,0,0,0,0,0,0],"id":36,"left_children":[1,3,-1,5,7,-1,-1,-1,-1],"loss_changes":[5.314536E-1,8.2566774E-1,0E0,2.557366E-1,1.196125E0,0E0,0E0,0E0,0E0],"parents":[2147483647,0,0,1,1,3,3,4,4],"right_children":[2,4,-1,6,8,-1,-1,-1,-1],"split_conditions":[5.6E1,9E0,3.7370887E-2,3.9E1,1.1E1,-5.8144624E-3,-7.051652E-2,7.143698E-2,-1.3190486E-2],"split_indices":[9,8,0,9,8,0,0,0,0],"split_type":[0,0,0,0,0,0,0,0,0],"sum_hessian":[1.3370021E1,1.1883945E1,1.4860752E0,2.6560254E0,9.227921E0,1.0517616E0,1.6042639E0,1.0424134E0,8.185507E0],"tree_param":{"num_deleted":"0","num_feature":"10","num_nodes":"9","size_leaf_vector":"1"}},{"base_weights":[-4.8153687E-2,2.9755969E-2,-1.380983E-1,-4.0586635E-1,1.4129634E-1,4.32716E-3,-5.3712197E-2,-8.287756E-3,6.220602E-2],"categories":[],"categories_nodes":[],"categories_segments":[],"categories_sizes":[],"default_left":[0,0,0,0,0,0,0,0,0],"id":37,"left_children":[1,-1,3,5,7,-1,-1,-1,-1],"loss_changes":[4.8483488E-1,0E0,9.556475E-1,3.9991164E-1,7.6478994E-1,0E0,0E0,0E0,0E0],"parents":[2147483647,0,0,2,2,3,3,4,4],"right_children":[2,-1,4,6,8,-1,-1,-1,-1],"split_conditions":[5.0178E4,2.9755969E-2,1E0,9E0,9.9351E4,4.32716E-3,-5.3712197E-2,-8.287756E-3,6.220602E-2],"split_indices":[5,0,2,6,5,0,0,0,0],"split_type":[0,0,0,0,0,0,0,0,0],"sum_hessian":[1.3270514E1,2.2632344E0,1.1007278E1,5.3894444E0,5.6178346E0,1.3704128E0,4.019032E0,4.395761E0,1.2220733E0],"tree_param":{"num_deleted":"0","num_feature":"10","num_nodes":"9","size_leaf_vector":"1"}},{"base_weights":[-4.1663043E-2,-3.1025085E-1,7.343153E-2,-6.962544E-2,1.7247733E-2,-1.3229144E-1,4.4460717E-1,1.51582835E-2,-6.965693E-2,1.3466853E-2,6.9036685E-2],"categories":[],"categories_nodes":[],"categories_segments":[],"categories_sizes":[],"default_left":[0,0,0,0,0,0,0,0,0,0,0],"id":38,"left_children":[1,3,5,-1,-1,7,9,-1,-1,-1,-1],"loss_changes":[4.6076718E-1,9.476948E-1,8.7790966E-1,0E0,0E0,1.3345666E0,2.1586305E-1,0E0,0E0,0E0,0E0],"parents":[2147483647,0,0,1,1,2,2,5,5,6,6],"right_children":[2,4,6,-1,-1,8,10,-1,-1,-1,-1],"split_conditions":[4E0,1.00416E5,6.8407E4,-6.962544E-2,1.7247733E-2,6.2061E4,1E0,1.51582835E-2,-6.965693E-2,1.3466853E-2,6.9036685E-2],"split_indices":[3,5,5,0,0,5,0,0,0,0,0],"split_type":[0,0,0,0,0,0,0,0,0,0,0],"sum_hessian":[1.3168309E1,3.4415045E0,9.726805E0,1.6665503E0,1.7749542E0,6.672294E0,3.0545108E0,4.9256763E0,1.7466177E0,2.0354638E0,1.019047E0],"tree_param":{"num_deleted":"0","num_feature":"10","num_nodes":"11","size_leaf_vector":"1"}},{"base_weights":[-4.0035784E-2,-2.7557886E-1,8.544999E-2,-7.6282464E-2,2.877748E-2,2.6162928E-1,-3.0888426E-1,-4.1190493E-3,5.3648513E-2,2.5359137E-2,-6.671139E-2],"categories":[],"categories_nodes":[],"categories_segments":[],"categories_sizes":[],"default_left":[0,0,0,0,0,0,0,0,0,0,0],"id":39,"left_children":[1,3,5,-1,-1,7,9,-1,-1,-1,-1],"loss_changes":[4.3971214E-1,1.6278155E0,7.720296E-1,0E0,0E0,6.395383E-1,8.806603E-1,0E0,0E0,0E0,0E0],"parents":[2147483647,0,0,1,1,2,2,5,5,6,6],"right_children":[2,4,6,-1,-1,8,10,-1,-1,-1,-1],"split_conditions":[1.8E1,5E1,5E0,-7.6282464E-2,2.877748E-2,1E0,3.6E1,-4.1190493E-3,5.3648513E-2,2.5359137E-2,-6.671139E-2],"split_indices":[6,9,7,0,0,0,9,0,0,0,0],"split_type":[0,0,0,0,0,0,0,0,0,0,0],"sum_hessian":[1.3079901E1,4.130552E0,8.949348E0,2.0250254E0,2.1055264E0,6.418322E0,2.5310266E0,3.4583054E0,2.9600167E0,1.0984266E0,1.4326001E0],"tree_param":{"num_deleted":"0","num_feature":"10","num_nodes":"11","size_leaf_vector":"1"}},{"base_weights":[-3.9720733E-2,-1.12289995E-1,3.388892E-2,-5.031272E-1,3.4426074E-2,-3.6778674E-3,-6.782404E-2,6.527989E-2,-1.1180393E-2],"categories":[],"categories_nodes":[],"categories_segments":[],"categories_sizes":[],"default_left":[0,0,0,0,0,0,0,0,0],"id":40,"left_children":[1,3,-1,5,7,-1,-1,-1,-1],"loss_changes":[4.231215E-1,7.34778E-1,0E0,2.591592E-1,9.802097E-1,0E0,0E0,0E0,0E0],"parents":[2147483647,0,0,1,1,3,3,4,4],"right_children":[2,4,-1,6,8,-1,-1,-1,-1],"split_conditions":[5.6E1,9E0,3.388892E-2,4E1,1.1E1,-3.6778674E-3,-6.782404E-2,6.527989E-2,-1.1180393E-2],"split_indices":[9,8,0,9,8,0,0,0,0],"split_type":[0,0,0,0,0,0,0,0,0],"sum_hessian":[1.3014976E1,1.1511876E1,1.5030994E0,2.478947E0,9.032929E0,1.0070565E0,1.4718904E0,1.0650188E0,7.9679103E0],"tree_param":{"num_deleted":"0","num_feature":"10","num_nodes":"9","size_leaf_vector":"1"}},{"base_weights":[-3.508262E-2,2.8093904E-2,-1.20775454E-1,-3.8561258E-1,1.4693879E-1,3.3597087E-3,-5.0983276E-2,-6.730766E-3,5.8462966E-2],"categories":[],"categories_nodes":[],"categories_segments":[],"categories_sizes":[],"default_left":[0,0,0,0,0,0,0,0,0],"id":41,"left_children":[1,-1,3,5,7,-1,-1,-1,-1],"loss_changes":[4.1117856E-1,0E0,8.832356E-1,3.366831E-1,6.509135E-1,0E0,0E0,0E0,0E0],"parents":[2147483647,0,0,2,2,3,3,4,4],"right_children":[2,-1,4,6,8,-1,-1,-1,-1],"split_conditions":[5.0178E4,2.8093904E-2,1E0,9E0,9.9351E4,3.3597087E-3,-5.0983276E-2,-6.730766E-3,5.8462966E-2],"split_indices":[5,0,2,6,5,0,0,0,0],"split_type":[0,0,0,0,0,0,0,0,0],"sum_hessian":[1.2930464E1,2.2722652E0,1.0658199E1,5.136506E0,5.521693E0,1.3408918E0,3.795614E0,4.2752237E0,1.2464694E0],"tree_param":{"num_deleted":"0","num_feature":"10","num_nodes":"9","size_leaf_vector":"1"}},{"base_weights":[-2.9823404E-2,-1.9252352E-1,1.5192066E-1,1.0659809E-1,-7.4856155E-2,-4.2407803E-2,4.363308E-1,-2.9444078E-2,5.4969907E-2,9.431282E-2,-7.816183E-3],"categories":[],"categories_nodes":[],"categories_segments":[],"categories_sizes":[],"default_left":[0,0,0,0,0,0,0,0,0,0,0],"id":42,"left_children":[1,3,5,7,-1,-1,9,-1,-1,-1,-1],"loss_changes":[4.3857405E-1,1.3679812E0,1.347769E0,1.2123E0,0E0,0E0,1.4411504E0,0E0,0E0,0E0,0E0],"parents":[2147483647,0,0,1,1,2,2,3,3,6,6],"right_children":[2,4,6,8,-1,-1,10,-1,-1,-1,-1],"split_conditions":[1.5E1,5E0,1E0,7.2992E4,-7.4856155E-2,-4.2407803E-2,6.2061E4,-2.9444078E-2,5.4969907E-2,9.431282E-2,-7.816183E-3],"split_indices":[8,7,1,5,0,0,5,0,0,0,0],"split_type":[0,0,0,0,0,0,0,0,0,0,0],"sum_hessian":[1.2842705E1,6.7450867E0,6.097618E0,4.9113226E0,1.8337642E0,1.8532543E0,4.244364E0,2.7541313E0,2.157191E0,1.7184719E0,2.5258918E0],"tree_param":{"num_deleted":"0","num_feature":"10","num_nodes":"11","size_leaf_vector":"1"}},{"base_weights":[-2.8219894E-2,-2.942565E-1,8.3348356E-2,-6.655943E-2,1.4884693E-2,-1.1648503E-1,4.3400776E-1,1.4191172E-2,-6.638979E-2,1.553481E-2,6.276173E-2],"categories":[],"categories_nodes":[],"categories_segments":[],"categories_sizes":[],"default_left":[0,0,0,0,0,0,0,0,0,0,0],"id":43,"left_children":[1,3,5,-1,-1,7,9,-1,-1,-1,-1],"loss_changes":[4.3219146E-1,8.0311847E-1,7.832393E-1,0E0,0E0,1.147838E0,1.1869365E-1,0E0,0E0,0E0,0E0],"parents":[2147483647,0,0,1,1,2,2,5,5,6,6],"right_children":[2,4,6,-1,-1,8,10,-1,-1,-1,-1],"split_conditions":[4E0,1.00416E5,6.8407E4,-6.655943E-2,1.4884693E-2,6.2061E4,1E0,1.4191172E-2,-6.638979E-2,1.553481E-2,6.276173E-2],"split_indices":[3,5,5,0,0,5,0,0,0,0,0],"split_type":[0,0,0,0,0,0,0,0,0,0,0],"sum_hessian":[1.2734793E1,3.2788517E0,9.455941E0,1.5107039E0,1.7681477E0,6.4487476E0,3.0071936E0,4.8840675E0,1.56468E0,1.9717124E0,1.0354812E0],"tree_param":{"num_deleted":"0","num_feature":"10","num_nodes":"11","size_leaf_vector":"1"}},{"base_weights":[-2.7896402E-2,-2.6438656E-1,9.590979E-2,-7.337791E-2,2.5196185E-2,2.475989E-1,-2.67927E-1,3.9858865E-3,6.033218E-2,2.4430819E-2,-6.213833E-2],"categories":[],"categories_nodes":[],"categories_segments":[],"categories_sizes":[],"default_left":[0,0,0,0,0,0,0,0,0,0,0],"id":44,"left_children":[1,3,5,-1,-1,7,9,-1,-1,-1,-1],"loss_changes":[4.2531812E-1,1.3870916E0,6.016902E-1,0E0,0E0,5.202601E-1,7.5552386E-1,0E0,0E0,0E0,0E0],"parents":[2147483647,0,0,1,1,2,2,5,5,6,6],"right_children":[2,4,6,-1,-1,8,10,-1,-1,-1,-1],"split_conditions":[1.8E1,5E1,5E0,-7.337791E-2,2.5196185E-2,7.4241E4,3.6E1,3.9858865E-3,6.033218E-2,2.4430819E-2,-6.213833E-2],"split_indices":[6,9,7,0,0,5,9,0,0,0,0],"split_type":[0,0,0,0,0,0,0,0,0,0,0],"sum_hessian":[1.26603565E1,3.9602127E0,8.700144E0,1.8538531E0,2.1063595E0,6.365675E0,2.334469E0,4.7208037E0,1.6448711E0,1.0792309E0,1.2552382E0],"tree_param":{"num_deleted":"0","num_feature":"10","num_nodes":"11","size_leaf_vector":"1"}},{"base_weights":[-2.7390238E-2,-1.8517438E-1,1.460908E-1,8.7187506E-2,-7.151062E-2,-3.074339E-1,4.7615927E-1,4.057504E-2,-4.530653E-2,-6.4149246E-2,1.419494E-2,7.322511E-2,-1.8946057E-3],"categories":[],"categories_nodes":[],"categories_segments":[],"categories_sizes":[],"default_left":[0,0,0,0,0,0,0,0,0,0,0,0,0],"id":45,"left_children":[1,3,5,7,-1,9,11,-1,-1,-1,-1,-1,-1],"loss_changes":[3.989907E-1,1.1530663E0,1.1988966E0,1.1962955E0,0E0,6.268861E-1,5.79589E-1,0E0,0E0,0E0,0E0,0E0,0E0],"parents":[2147483647,0,0,1,1,2,2,3,3,5,5,6,6],"right_children":[2,4,6,8,-1,10,12,-1,-1,-1,-1,-1,-1],"split_conditions":[1.5E1,5E0,1E0,1E0,-7.151062E-2,5E0,1.9E1,4.057504E-2,-4.530653E-2,-6.4149246E-2,1.419494E-2,7.322511E-2,-1.8946057E-3],"split_indices":[8,7,0,0,0,7,8,0,0,0,0,0,0],"split_type":[0,0,0,0,0,0,0,0,0,0,0,0,0],"sum_hessian":[1.2588004E1,6.5569425E0,6.0310616E0,4.882846E0,1.6740962E0,2.569315E0,3.4617465E0,3.2282522E0,1.6545937E0,1.2285509E0,1.340764E0,1.9659064E0,1.4958401E0],"tree_param":{"num_deleted":"0","num_feature":"10","num_nodes":"13","size_leaf_vector":"1"}},{"base_weights":[-2.952383E-2,-1.7891885E-1,1.335355E-1,-4.727376E-1,2.5493777E-1,-3.9476838E-2,3.828108E-1,-3.8288985E-3,-7.386123E-2,5.5071123E-2,-6.7373747E-3,8.250312E-2,-8.201062E-3],"categories":[],"categories_nodes":[],"categories_segments":[],"categories_sizes":[],"default_left":[0,0,0,0,0,0,0,0,0,0,0,0,0],"id":46,"left_children":[1,3,5,7,9,-1,11,-1,-1,-1,-1,-1,-1],"loss_changes":[3.5394344E-1,1.0763303E0,1.0796567E0,5.285686E-1,3.8765377E-1,0E0,1.1567082E0,0E0,0E0,0E0,0E0,0E0,0E0],"parents":[2147483647,0,0,1,1,2,2,3,3,4,4,6,6],"right_children":[2,4,6,8,10,-1,12,-1,-1,-1,-1,-1,-1],"split_conditions":[1.5E1,4.9E1,1E0,1E1,5.2E1,-3.9476838E-2,6.2061E4,-3.8288985E-3,-7.386123E-2,5.5071123E-2,-6.7373747E-3,8.250312E-2,-8.201062E-3],"split_indices":[8,9,1,8,9,0,5,0,0,0,0,0,0],"split_type":[0,0,0,0,0,0,0,0,0,0,0,0,0],"sum_hessian":[1.254877E1,6.4980197E0,6.05075E0,3.8208354E0,2.6771843E0,1.7526311E0,4.298119E0,1.8848822E0,1.9359531E0,1.0265379E0,1.6506463E0,1.8054824E0,2.4926364E0],"tree_param":{"num_deleted":"0","num_feature":"10","num_nodes":"13","size_leaf_vector":"1"}},{"base_weights":[-2.698379E-2,2.6143453E-1,-1.0716194E-1,3.490449E-2,5.986759E-3,-6.3212834E-2,2.851977E-2,-5.5692997E-2,1.6873423E-2],"categories":[],"categories_nodes":[],"categories_segments":[],"categories_sizes":[],"default_left":[0,0,0,0,0,0,0,0,0],"id":47,"left_children":[1,3,5,-1,-1,-1,7,-1,-1],"loss_changes":[3.3869302E-1,3.5844788E-2,8.173295E-1,0E0,0E0,0E0,9.045019E-1,0E0,0E0],"parents":[2147483647,0,0,1,1,2,2,6,6],"right_children":[2,4,6,-1,-1,-1,8,-1,-1],"split_conditions":[5.0178E4,9E0,5.8523E4,3.490449E-2,5.986759E-3,-6.3212834E-2,8E0,-5.5692997E-2,1.6873423E-2],"split_indices":[5,8,5,0,0,0,8,0,0],"split_type":[0,0,0,0,0,0,0,0,0],"sum_hessian":[1.2434779E1,2.213101E0,1.0221679E1,1.032619E0,1.180482E0,1.3478405E0,8.873838E0,1.1403689E0,7.733469E0],"tree_param":{"num_deleted":"0","num_feature":"10","num_nodes":"9","size_leaf_vector":"1"}},{"base_weights":[-2.9257754E-2,-2.7242333E-1,7.0546806E-2,-6.40635E-2,1.4868987E-2,-1.1962971E-1,3.9998806E-1,1.1937412E-2,-6.418805E-2,5.20551E-2,7.4982913E-3],"categories":[],"categories_nodes":[],"categories_segments":[],"categories_sizes":[],"default_left":[0,0,0,0,0,0,0,0,0,0,0],"id":48,"left_children":[1,3,5,-1,-1,7,9,-1,-1,-1,-1],"loss_changes":[3.4455475E-1,7.3203206E-1,6.9308627E-1,0E0,0E0,9.8771405E-1,1.1768192E-1,0E0,0E0,0E0,0E0],"parents":[2147483647,0,0,1,1,2,2,5,5,6,6],"right_children":[2,4,6,-1,-1,8,10,-1,-1,-1,-1],"split_conditions":[4E0,1.00416E5,6.8407E4,-6.40635E-2,1.4868987E-2,6.2061E4,7.4417E4,1.1937412E-2,-6.418805E-2,5.20551E-2,7.4982913E-3],"split_indices":[3,5,5,0,0,5,5,0,0,0,0],"split_type":[0,0,0,0,0,0,0,0,0,0,0],"sum_hessian":[1.2405402E1,3.1066756E0,9.298727E0,1.3793312E0,1.7273444E0,6.2992373E0,2.9994893E0,4.8507533E0,1.4484843E0,1.7490109E0,1.2504784E0],"tree_param":{"num_deleted":"0","num_feature":"10","num_nodes":"11","size_leaf_vector":"1"}},{"base_weights":[-3.0043826E-2,-2.4777187E-1,8.190482E-2,-7.002701E-2,2.2365283E-2,-1.3328654E-1,3.1607682E-1,2.7520826E-2,-2.972631E-2,-1.87921E-2,6.663035E-2],"categories":[],"categories_nodes":[],"categories_segments":[],"categories_sizes":[],"default_left":[0,0,0,0,0,0,0,0,0,0,0],"id":49,"left_children":[1,3,5,-1,-1,7,9,-1,-1,-1,-1],"loss_changes":[3.4564304E-1,1.176503E0,5.2422583E-1,0E0,0E0,4.628738E-1,9.86254E-1,0E0,0E0,0E0,0E0],"parents":[2147483647,0,0,1,1,2,2,5,5,6,6],"right_children":[2,4,6,-1,-1,8,10,-1,-1,-1,-1],"split_conditions":[1.8E1,5E1,1E0,-7.002701E-2,2.2365283E-2,3.6E1,1.6E1,2.7520826E-2,-2.972631E-2,-1.87921E-2,6.663035E-2],"split_indices":[6,9,0,0,0,9,8,0,0,0,0],"split_type":[0,0,0,0,0,0,0,0,0,0,0],"sum_hessian":[1.2348015E1,3.7810385E0,8.566977E0,1.6815577E0,2.0994809E0,4.6889257E0,3.8780508E0,1.1487774E0,3.5401485E0,1.7799797E0,2.0980709E0],"tree_param":{"num_deleted":"0","num_feature":"10","num_nodes":"11","size_leaf_vector":"1"}},{"base_weights":[-2.7897319E-2,-2.3747364E-1,7.80886E-2,-6.811005E-2,2.0735058E-1,2.1297382E-1,-2.5712854E-1,2.5084246E-2,6.7019486E-3,1.4384595E-3,5.62262E-2,2.0859037E-2,-5.880251E-2],"categories":[],"categories_nodes":[],"categories_segments":[],"categories_sizes":[],"default_left":[0,0,0,0,0,0,0,0,0,0,0,0,0],"id":50,"left_children":[1,3,5,-1,7,9,11,-1,-1,-1,-1,-1,-1],"loss_changes":[3.1332526E-1,1.0696464E0,4.8731506E-1,0E0,2.2053719E-3,5.030278E-1,6.154684E-1,0E0,0E0,0E0,0E0,0E0,0E0],"parents":[2147483647,0,0,1,1,2,2,4,4,5,5,6,6],"right_children":[2,4,6,-1,8,10,12,-1,-1,-1,-1,-1,-1],"split_conditions":[1.8E1,5E1,5E0,-6.811005E-2,7.7692E4,7.4241E4,3.6E1,2.5084246E-2,6.7019486E-3,1.4384595E-3,5.62262E-2,2.0859037E-2,-5.880251E-2],"split_indices":[6,9,7,0,5,5,9,0,0,0,0,0,0],"split_type":[0,0,0,0,0,0,0,0,0,0,0,0,0],"sum_hessian":[1.227118E1,3.704767E0,8.566413E0,1.5889381E0,2.1158288E0,6.3685102E0,2.1979024E0,1.0140476E0,1.1017811E0,4.7239003E0,1.64461E0,1.0664927E0,1.1314098E0],"tree_param":{"num_deleted":"0","num_feature":"10","num_nodes":"13","size_leaf_vector":"1"}},{"base_weights":[-2.694745E-2,-9.2424504E-2,2.9062932E-2,-5.6532633E-2,7.4194553E-3,-3.8190678E-2,1.7986685E-2],"categories":[],"categories_nodes":[],"categories_segments":[],"categories_sizes":[],"default_left":[0,0,0,0,0,0,0],"id":51,"left_children":[1,3,-1,-1,5,-1,-1],"loss_changes":[3.0134425E-1,5.567431E-1,0E0,0E0,7.836806E-1,0E0,0E0],"parents":[2147483647,0,0,1,1,4,4],"right_children":[2,4,-1,-1,6,-1,-1],"split_conditions":[5.6E1,5E0,2.9062932E-2,-5.6532633E-2,1.6E1,-3.8190678E-2,1.7986685E-2],"split_indices":[9,8,0,0,6,0,0],"split_type":[0,0,0,0,0,0,0],"sum_hessian":[1.220011E1,1.0702475E1,1.4976354E0,1.0529891E0,9.649486E0,2.5892446E0,7.060241E0],"tree_param":{"num_deleted":"0","num_feature":"10","num_nodes":"7","size_leaf_vector":"1"}},{"base_weights":[-2.8167127E-2,2.4138092E-1,-1.04760215E-1,3.5157412E-2,2.9642934E-3,-3.6720437E-1,1.5334165E-1,6.810009E-3,-4.9618565E-2,-5.9028673E-3,5.653427E-2],"categories":[],"categories_nodes":[],"categories_segments":[],"categories_sizes":[],"default_left":[0,0,0,0,0,0,0,0,0,0,0],"id":52,"left_children":[1,3,5,-1,-1,7,9,-1,-1,-1,-1],"loss_changes":[2.9740968E-1,6.468989E-2,7.9880834E-1,0E0,0E0,3.5548472E-1,5.786406E-1,0E0,0E0,0E0,0E0],"parents":[2147483647,0,0,1,1,2,2,5,5,6,6],"right_children":[2,4,6,-1,-1,8,10,-1,-1,-1,-1],"split_conditions":[5.0178E4,9E0,1E0,3.5157412E-2,2.9642934E-3,9E0,9.9351E4,6.810009E-3,-4.9618565E-2,-5.9028673E-3,5.653427E-2],"split_indices":[5,8,2,0,0,6,5,0,0,0,0],"split_type":[0,0,0,0,0,0,0,0,0,0,0],"sum_hessian":[1.2180709E1,2.2192402E0,9.961469E0,1.0252542E0,1.193986E0,4.7295933E0,5.231875E0,1.1889545E0,3.540639E0,4.0176578E0,1.2142174E0],"tree_param":{"num_deleted":"0","num_feature":"10","num_nodes":"11","size_leaf_vector":"1"}},{"base_weights":[-2.2328503E-2,-2.4841163E-1,6.7411214E-2,-6.120432E-2,1.4749537E-2,-1.11934096E-1,3.716522E-1,1.1242672E-2,-6.210169E-2,7.877267E-3,4.8219036E-2],"categories":[],"categories_nodes":[],"categories_segments":[],"categories_sizes":[],"default_left":[0,0,0,0,0,0,0,0,0,0,0],"id":53,"left_children":[1,3,5,-1,-1,7,9,-1,-1,-1,-1],"loss_changes":[2.8253493E-1,6.56898E-1,5.962198E-1,0E0,0E0,8.8800895E-1,9.155089E-2,0E0,0E0,0E0,0E0],"parents":[2147483647,0,0,1,1,2,2,5,5,6,6],"right_children":[2,4,6,-1,-1,8,10,-1,-1,-1,-1],"split_conditions":[4E0,1.00416E5,6.8407E4,-6.120432E-2,1.4749537E-2,6.2061E4,1E0,1.1242672E-2,-6.210169E-2,7.877267E-3,4.8219036E-2],"split_indices":[3,5,5,0,0,5,2,0,0,0,0],"split_type":[0,0,0,0,0,0,0,0,0,0,0],"sum_hessian":[1.2100398E1,2.9358687E0,9.164529E0,1.2457494E0,1.6901193E0,6.1633925E0,3.0011365E0,4.8188205E0,1.344572E0,1.291592E0,1.7095445E0],"tree_param":{"num_deleted":"0","num_feature":"10","num_nodes":"11","size_leaf_vector":"1"}},{"base_weights":[-2.372657E-2,-1.6145846E-1,1.2181172E-1,9.044261E-2,-6.730797E-2,-3.739253E-2,3.496528E-1,3.6806382E-2,-4.1853648E-2,7.402714E-2,-7.934234E-3],"categories":[],"categories_nodes":[],"categories_segments":[],"categories_sizes":[],"default_left":[0,0,0,0,0,0,0,0,0,0,0],"id":54,"left_children":[1,3,5,7,-1,-1,9,-1,-1,-1,-1],"loss_changes":[2.8120792E-1,9.802319E-1,9.116688E-1,9.540506E-1,0E0,0E0,9.391066E-1,0E0,0E0,0E0,0E0],"parents":[2147483647,0,0,1,1,2,2,3,3,6,6],"right_children":[2,4,6,8,-1,-1,10,-1,-1,-1,-1],"split_conditions":[1.5E1,5E0,1E0,1E0,-6.730797E-2,-3.739253E-2,6.2061E4,3.6806382E-2,-4.1853648E-2,7.402714E-2,-7.934234E-3],"split_indices":[8,7,1,0,0,0,5,0,0,0,0],"split_type":[0,0,0,0,0,0,0,0,0,0,0],"sum_hessian":[1.204749E1,6.1335473E0,5.9139433E0,4.661595E0,1.4719523E0,1.6602976E0,4.253646E0,3.1954854E0,1.4661095E0,1.8466223E0,2.4070234E0],"tree_param":{"num_deleted":"0","num_feature":"10","num_nodes":"11","size_leaf_vector":"1"}},{"base_weights":[-2.5353752E-2,-1.5049987E-1,1.2646732E-1,6.419354E-2,-6.28208E-2,-1.8450387E-1,3.7287357E-1,2.937584E-2,-2.2091292E-2,1.479515E-2,-4.0577713E-2,-8.135813E-3,6.932983E-2],"categories":[],"categories_nodes":[],"categories_segments":[],"categories_sizes":[],"default_left":[0,0,0,0,0,0,0,0,0,0,0,0,0],"id":55,"left_children":[1,3,5,7,-1,9,11,-1,-1,-1,-1,-1,-1],"loss_changes":[2.65914E-1,8.1766194E-1,5.6031567E-1,4.6652788E-1,0E0,3.178567E-1,6.254705E-1,0E0,0E0,0E0,0E0,0E0,0E0],"parents":[2147483647,0,0,1,1,2,2,3,3,5,5,6,6],"right_children":[2,4,6,8,-1,10,12,-1,-1,-1,-1,-1,-1],"split_conditions":[4.6E1,3.9E1,1E0,6.2061E4,-6.28208E-2,1E0,1.4E1,2.937584E-2,-2.2091292E-2,1.479515E-2,-4.0577713E-2,-8.135813E-3,6.932983E-2],"split_indices":[9,9,2,5,0,1,8,0,0,0,0,0,0],"split_type":[0,0,0,0,0,0,0,0,0,0,0,0,0],"sum_hessian":[1.1993844E1,6.579262E0,5.4145827E0,5.1364436E0,1.4428182E0,2.504747E0,2.9098358E0,2.828565E0,2.3078785E0,1.1333263E0,1.3714206E0,1.5122186E0,1.3976173E0],"tree_param":{"num_deleted":"0","num_feature":"10","num_nodes":"13","size_leaf_vector":"1"}},{"base_weights":[-2.4893217E-2,-8.940916E-2,2.804606E-2,-4.1380054E-1,2.4742067E-2,-8.783381E-3,-5.3451486E-2,5.74241E-2,-1.1045559E-2],"categories":[],"categories_nodes":[],"categories_segments":[],"categories_sizes":[],"default_left":[0,0,0,0,0,0,0,0,0],"id":56,"left_children":[1,3,-1,5,7,-1,-1,-1,-1],"loss_changes":[2.7966395E-1,4.3338507E-1,0E0,7.231349E-2,7.6149166E-1,0E0,0E0,0E0,0E0],"parents":[2147483647,0,0,1,1,3,3,4,4],"right_children":[2,4,-1,6,8,-1,-1,-1,-1],"split_conditions":[5.6E1,9E0,2.804606E-2,5.7568E4,1.1E1,-8.783381E-3,-5.3451486E-2,5.74241E-2,-1.1045559E-2],"split_indices":[9,8,0,5,8,0,0,0,0],"split_type":[0,0,0,0,0,0,0,0,0],"sum_hessian":[1.1923134E1,1.0427236E1,1.4958982E0,2.0308914E0,8.396344E0,1.0157263E0,1.015165E0,1.016688E0,7.3796563E0],"tree_param":{"num_deleted":"0","num_feature":"10","num_nodes":"9","size_leaf_vector":"1"}},{"base_weights":[-2.1749116E-2,-1.5315914E-1,1.150773E-1,8.019915E-2,-6.450787E-2,-2.7928326E-1,3.8803956E-1,-2.6493162E-2,4.508015E-2,-6.074483E-2,1.4484751E-2,5.994395E-2,-2.781786E-3],"categories":[],"categories_nodes":[],"categories_segments":[],"categories_sizes":[],"default_left":[0,0,0,0,0,0,0,0,0,0,0,0,0],"id":57,"left_children":[1,3,5,7,-1,9,11,-1,-1,-1,-1,-1,-1],"loss_changes":[2.4872197E-1,8.5358435E-1,8.4763813E-1,8.391726E-1,0E0,5.599091E-1,4.102562E-1,0E0,0E0,0E0,0E0,0E0,0E0],"parents":[2147483647,0,0,1,1,2,2,3,3,5,5,6,6],"right_children":[2,4,6,8,-1,10,12,-1,-1,-1,-1,-1,-1],"split_conditions":[1.5E1,5E0,1E0,7.2992E4,-6.450787E-2,5E0,1.9E1,-2.6493162E-2,4.508015E-2,-6.074483E-2,1.4484751E-2,5.994395E-2,-2.781786E-3],"split_indices":[8,7,0,5,0,7,8,0,0,0,0,0,0],"split_type":[0,0,0,0,0,0,0,0,0,0,0,0,0],"sum_hessian":[1.1852734E1,5.9851465E0,5.867587E0,4.627097E0,1.3580493E0,2.3906105E0,3.4769769E0,2.5435233E0,2.083574E0,1.1041056E0,1.2865049E0,2.0124824E0,1.4644945E0],"tree_param":{"num_deleted":"0","num_feature":"10","num_nodes":"13","size_leaf_vector":"1"}},{"base_weights":[-2.2953833E-2,-2.3984863E-1,6.214462E-2,-5.9210777E-2,1.3833344E-2,-1.1592898E-1,3.6246225E-1,8.551892E-3,-5.9055116E-2,1.249318E-2,5.190104E-2],"categories":[],"categories_nodes":[],"categories_segments":[],"categories_sizes":[],"default_left":[0,0,0,0,0,0,0,0,0,0,0],"id":58,"left_children":[1,3,5,-1,-1,7,9,-1,-1,-1,-1],"loss_changes":[2.5048593E-1,5.8845544E-1,5.7472485E-1,0E0,0E0,7.208264E-1,8.204657E-2,0E0,0E0,0E0,0E0],"parents":[2147483647,0,0,1,1,2,2,5,5,6,6],"right_children":[2,4,6,-1,-1,8,10,-1,-1,-1,-1],"split_conditions":[4E0,1.00416E5,6.8407E4,-5.9210777E-2,1.3833344E-2,6.2061E4,1E0,8.551892E-3,-5.9055116E-2,1.249318E-2,5.190104E-2],"split_indices":[3,5,5,0,0,5,0,0,0,0,0],"split_type":[0,0,0,0,0,0,0,0,0,0,0],"sum_hessian":[1.1763471E1,2.8023903E0,8.961081E0,1.1580509E0,1.6443396E0,6.0108943E0,2.950186E0,4.795371E0,1.2155231E0,1.8862379E0,1.0639483E0],"tree_param":{"num_deleted":"0","num_feature":"10","num_nodes":"11","size_leaf_vector":"1"}},{"base_weights":[-2.3549229E-2,3.7553515E-2,-3.3045396E-2,-7.335242E-2,5.793357E-2,-6.024474E-2,6.270536E-3],"categories":[],"categories_nodes":[],"categories_segments":[],"categories_sizes":[],"default_left":[0,0,0,0,0,0,0],"id":59,"left_children":[1,3,-1,5,-1,-1,-1],"loss_changes":[2.506228E-1,7.32994E-1,0E0,7.883614E-1,0E0,0E0,0E0],"parents":[2147483647,0,0,1,1,3,3],"right_children":[2,4,-1,6,-1,-1,-1],"split_conditions":[1.4092E5,1.00416E5,-3.3045396E-2,5E0,5.793357E-2,-6.024474E-2,6.270536E-3],"split_indices":[5,5,0,3,0,0,0],"split_type":[0,0,0,0,0,0,0],"sum_hessian":[1.1702856E1,1.0491671E1,1.2111857E0,9.4266E0,1.0650703E0,1.2270454E0,8.199554E0],"tree_param":{"num_deleted":"0","num_feature":"10","num_nodes":"7","size_leaf_vector":"1"}},{"base_weights":[-2.3761414E-2,-8.6520165E-2,2.6813319E-2,-3.6498523E-1,3.377054E-2,-6.311795E-2,1.0620259E-2,-2.2659311E-2,3.1027129E-2],"categories":[],"categories_nodes":[],"categories_segments":[],"categories_sizes":[],"default_left":[0,0,0,0,0,0,0,0,0],"id":60,"left_children":[1,3,-1,5,7,-1,-1,-1,-1],"loss_changes":[2.5529823E-1,3.869505E-1,0E0,5.008219E-1,6.984552E-1,0E0,0E0,0E0,0E0],"parents":[2147483647,0,0,1,1,3,3,4,4],"right_children":[2,4,-1,6,8,-1,-1,-1,-1],"split_conditions":[5.6E1,1.6E1,2.6813319E-2,5E1,1E0,-6.311795E-2,1.0620259E-2,-2.2659311E-2,3.1027129E-2],"split_indices":[9,6,0,9,0,0,0,0,0],"split_type":[0,0,0,0,0,0,0,0,0],"sum_hessian":[1.1669909E1,1.0183909E1,1.4859986E0,2.4584851E0,7.725425E0,1.3540016E0,1.1044834E0,4.0717793E0,3.6536453E0],"tree_param":{"num_deleted":"0","num_feature":"10","num_nodes":"9","size_leaf_vector":"1"}},{"base_weights":[-2.3168024E-2,-8.268629E-2,2.5054514E-2,-3.5093588E-1,3.1208977E-2,-6.13946E-2,1.0041577E-2,-2.8306862E-2,2.4450785E-2],"categories":[],"categories_nodes":[],"categories_segments":[],"categories_sizes":[],"default_left":[0,0,0,0,0,0,0,0,0],"id":61,"left_children":[1,3,-1,5,7,-1,-1,-1,-1],"loss_changes":[2.2617225E-1,3.5041836E-1,0E0,4.64457E-1,6.536079E-1,0E0,0E0,0E0,0E0],"parents":[2147483647,0,0,1,1,3,3,4,4],"right_children":[2,4,-1,6,8,-1,-1,-1,-1],"split_conditions":[5.6E1,1.6E1,2.5054514E-2,5E1,5.8273E4,-6.13946E-2,1.0041577E-2,-2.8306862E-2,2.4450785E-2],"split_indices":[9,6,0,9,5,0,0,0,0],"split_type":[0,0,0,0,0,0,0,0,0],"sum_hessian":[1.1611654E1,1.0110959E1,1.5006946E0,2.3932018E0,7.7177577E0,1.2844771E0,1.1087248E0,2.9880393E0,4.729718E0],"tree_param":{"num_deleted":"0","num_feature":"10","num_nodes":"9","size_leaf_vector":"1"}},{"base_weights":[-2.359332E-2,2.2641328E-1,-9.6979536E-2,3.4939196E-2,5.479495E-4,-6.1235853E-2,3.8522292E-2,-2.1881392E-2,2.4732184E-2],"categories":[],"categories_nodes":[],"categories_segments":[],"categories_sizes":[],"default_left":[0,0,0,0,0,0,0,0,0],"id":62,"left_children":[1,3,5,-1,-1,-1,7,-1,-1],"loss_changes":[2.5274897E-1,8.379193E-2,7.516025E-1,0E0,0E0,0E0,5.4819906E-1,0E0,0E0],"parents":[2147483647,0,0,1,1,2,2,6,6],"right_children":[2,4,6,-1,-1,-1,8,-1,-1],"split_conditions":[5.0178E4,9E0,5.8523E4,3.4939196E-2,5.479495E-4,-6.1235853E-2,1E0,-2.1881392E-2,2.4732184E-2],"split_indices":[5,8,5,0,0,0,2,0,0],"split_type":[0,0,0,0,0,0,0,0,0],"sum_hessian":[1.1579224E1,2.1544337E0,9.42479E0,1.0105159E0,1.1439178E0,1.2294412E0,8.195349E0,3.649518E0,4.545831E0],"tree_param":{"num_deleted":"0","num_feature":"10","num_nodes":"9","size_leaf_vector":"1"}},{"base_weights":[-2.338204E-2,2.1347407E-1,-9.363623E-2,3.282262E-2,5.1866117E-4,-5.955692E-2,3.4816667E-2,4.3853905E-2,-9.677245E-3],"categories":[],"categories_nodes":[],"categories_segments":[],"categories_sizes":[],"default_left":[0,0,0,0,0,0,0,0,0],"id":63,"left_children":[1,3,5,-1,-1,-1,7,-1,-1],"loss_changes":[2.2880606E-1,7.419877E-2,6.895591E-1,0E0,0E0,0E0,5.31427E-1,0E0,0E0],"parents":[2147483647,0,0,1,1,2,2,6,6],"right_children":[2,4,6,-1,-1,-1,8,-1,-1],"split_conditions":[5.0178E4,9E0,5.8523E4,3.282262E-2,5.1866117E-4,-5.955692E-2,6.2061E4,4.3853905E-2,-9.677245E-3],"split_indices":[5,8,5,0,0,0,5,0,0],"split_type":[0,0,0,0,0,0,0,0,0],"sum_hessian":[1.1549006E1,2.1755905E0,9.373416E0,1.0314819E0,1.1441087E0,1.1690081E0,8.204408E0,1.4433856E0,6.761022E0],"tree_param":{"num_deleted":"0","num_feature":"10","num_nodes":"9","size_leaf_vector":"1"}},{"base_weights":[-2.0703161E-2,-1.4795282E-1,1.1021557E-1,7.4789986E-2,-6.224077E-2,-2.5259802E-1,3.50166E-1,3.2920115E-2,-4.069521E-2,-5.811567E-2,1.5506305E-2,5.4553002E-2,-3.5590858E-3],"categories":[],"categories_nodes":[],"categories_segments":[],"categories_sizes":[],"default_left":[0,0,0,0,0,0,0,0,0,0,0,0,0],"id":64,"left_children":[1,3,5,7,-1,9,11,-1,-1,-1,-1,-1,-1],"loss_changes":[2.2476964E-1,7.622731E-1,6.752867E-1,8.082364E-1,0E0,5.2734274E-1,3.5677564E-1,0E0,0E0,0E0,0E0,0E0,0E0],"parents":[2147483647,0,0,1,1,2,2,3,3,5,5,6,6],"right_children":[2,4,6,8,-1,10,12,-1,-1,-1,-1,-1,-1],"split_conditions":[1.5E1,5E0,1E0,1E0,-6.224077E-2,5E0,1.9E1,3.2920115E-2,-4.069521E-2,-5.811567E-2,1.5506305E-2,5.4553002E-2,-3.5590858E-3],"split_indices":[8,7,0,0,0,7,8,0,0,0,0,0,0],"split_type":[0,0,0,0,0,0,0,0,0,0,0,0,0],"sum_hessian":[1.151326E1,5.7724624E0,5.740798E0,4.501503E0,1.270959E0,2.2643344E0,3.4764636E0,3.153018E0,1.3484851E0,1.0181545E0,1.2461799E0,2.0327897E0,1.4436738E0],"tree_param":{"num_deleted":"0","num_feature":"10","num_nodes":"13","size_leaf_vector":"1"}},{"base_weights":[-2.4101643E-2,-8.131993E-2,2.3568746E-2,-3.7864987E-2,2.1967407E-2,-3.29055E-2,1.676367E-2],"categories":[],"categories_nodes":[],"categories_segments":[],"categories_sizes":[],"default_left":[0,0,0,0,0,0,0],"id":65,"left_children":[1,3,-1,-1,5,-1,-1],"loss_changes":[2.0455588E-1,3.4503305E-1,0E0,0E0,5.195824E-1,0E0,0E0],"parents":[2147483647,0,0,1,1,4,4],"right_children":[2,4,-1,-1,6,-1,-1],"split_conditions":[5.6E1,9E0,2.3568746E-2,-3.7864987E-2,5.8273E4,-3.29055E-2,1.676367E-2],"split_indices":[9,8,0,0,5,0,0],"split_type":[0,0,0,0,0,0,0],"sum_hessian":[1.14718275E1,9.964199E0,1.507628E0,1.8816291E0,8.08257E0,2.0012345E0,6.081336E0],"tree_param":{"num_deleted":"0","num_feature":"10","num_nodes":"7","size_leaf_vector":"1"}},{"base_weights":[-2.4362506E-2,2.1528536E-1,-9.5311224E-2,3.198693E-2,1.353519E-3,-5.749337E-2,2.4034591E-2,-2.1292305E-2,2.145712E-2],"categories":[],"categories_nodes":[],"categories_segments":[],"categories_sizes":[],"default_left":[0,0,0,0,0,0,0,0,0],"id":66,"left_children":[1,3,5,-1,-1,-1,7,-1,-1],"loss_changes":[2.321144E-1,6.2126428E-2,6.031254E-1,0E0,0E0,0E0,4.612275E-1,0E0,0E0],"parents":[2147483647,0,0,1,1,2,2,6,6],"right_children":[2,4,6,-1,-1,-1,8,-1,-1],"split_conditions":[5.0178E4,9E0,5.8523E4,3.198693E-2,1.353519E-3,-5.749337E-2,1E0,-2.1292305E-2,2.145712E-2],"split_indices":[5,8,5,0,0,0,2,0,0],"split_type":[0,0,0,0,0,0,0,0,0],"sum_hessian":[1.1444799E1,2.1495962E0,9.295204E0,1.0301247E0,1.1194715E0,1.0914698E0,8.203734E0,3.604084E0,4.59965E0],"tree_param":{"num_deleted":"0","num_feature":"10","num_nodes":"9","size_leaf_vector":"1"}},{"base_weights":[-2.413089E-2,2.0300816E-1,-9.201538E-2,3.007097E-2,1.281745E-3,-5.5932265E-2,2.1535587E-2,3.9289396E-2,-1.0080128E-2],"categories":[],"categories_nodes":[],"categories_segments":[],"categories_sizes":[],"default_left":[0,0,0,0,0,0,0,0,0],"id":67,"left_children":[1,3,5,-1,-1,-1,7,-1,-1],"loss_changes":[2.1012637E-1,5.502838E-2,5.557987E-1,0E0,0E0,0E0,4.578849E-1,0E0,0E0],"parents":[2147483647,0,0,1,1,2,2,6,6],"right_children":[2,4,6,-1,-1,-1,8,-1,-1],"split_conditions":[5.0178E4,9E0,5.8523E4,3.007097E-2,1.281745E-3,-5.5932265E-2,6.2061E4,3.9289396E-2,-1.0080128E-2],"split_indices":[5,8,5,0,0,0,5,0,0],"split_type":[0,0,0,0,0,0,0,0,0],"sum_hessian":[1.1416097E1,2.1688175E0,9.24728E0,1.0488994E0,1.1199181E0,1.0402983E0,8.206982E0,1.485652E0,6.721329E0],"tree_param":{"num_deleted":"0","num_feature":"10","num_nodes":"9","size_leaf_vector":"1"}},{"base_weights":[-2.1596538E-2,3.3446494E-2,-3.0098781E-2,-7.323045E-2,5.472002E-2,-5.841857E-2,5.5272854E-3],"categories":[],"categories_nodes":[],"categories_segments":[],"categories_sizes":[],"default_left":[0,0,0,0,0,0,0],"id":68,"left_children":[1,3,-1,5,-1,-1,-1],"loss_changes":[2.004905E-1,6.563309E-1,0E0,7.015587E-1,0E0,0E0,0E0],"parents":[2147483647,0,0,1,1,3,3],"right_children":[2,4,-1,6,-1,-1,-1],"split_conditions":[1.4092E5,1.00416E5,-3.0098781E-2,5E0,5.472002E-2,-5.841857E-2,5.5272854E-3],"split_indices":[5,5,0,3,0,0,0],"split_type":[0,0,0,0,0,0,0],"sum_hessian":[1.1382416E1,1.0244441E1,1.1379751E0,9.193038E0,1.0514026E0,1.1347935E0,8.058245E0],"tree_param":{"num_deleted":"0","num_feature":"10","num_nodes":"7","size_leaf_vector":"1"}},{"base_weights":[-2.1959567E-2,-1.4425932E-1,1.0272612E-1,6.945223E-2,-6.0615916E-2,-2.4811758E-2,3.3203876E-1,-2.4844872E-2,4.0335786E-2,5.7606995E-2,2.440368E-3],"categories":[],"categories_nodes":[],"categories_segments":[],"categories_sizes":[],"default_left":[0,0,0,0,0,0,0,0,0,0,0],"id":69,"left_children":[1,3,5,7,-1,-1,9,-1,-1,-1,-1],"loss_changes":[2.0314343E-1,6.9859505E-1,6.213697E-1,6.780899E-1,0E0,0E0,3.2219636E-1,0E0,0E0,0E0,0E0],"parents":[2147483647,0,0,1,1,2,2,3,3,6,6],"right_children":[2,4,6,8,-1,-1,10,-1,-1,-1,-1],"split_conditions":[1.5E1,5E0,1E0,7.2992E4,-6.0615916E-2,-2.4811758E-2,6.2061E4,-2.4844872E-2,4.0335786E-2,5.7606995E-2,2.440368E-3],"split_indices":[8,7,0,5,0,0,5,0,0,0,0],"split_type":[0,0,0,0,0,0,0,0,0,0,0],"sum_hessian":[1.1349917E1,5.65053E0,5.699388E0,4.444014E0,1.2065159E0,2.220327E0,3.479061E0,2.4076746E0,2.0363393E0,1.4534987E0,2.0255623E0],"tree_param":{"num_deleted":"0","num_feature":"10","num_nodes":"11","size_leaf_vector":"1"}},{"base_weights":[-2.1028196E-2,1.9901451E-1,-8.753816E-2,3.0015571E-2,5.830909E-4,-3.1647652E-1,1.2667249E-1,8.90384E-3,-4.4232573E-2,-6.4221695E-3,4.8411634E-2],"categories":[],"categories_nodes":[],"categories_segments":[],"categories_sizes":[],"default_left":[0,0,0,0,0,0,0,0,0,0,0],"id":70,"left_children":[1,3,5,-1,-1,7,9,-1,-1,-1,-1],"loss_changes":[1.9675337E-1,5.9789203E-2,5.356002E-1,0E0,0E0,3.0322605E-1,4.3599516E-1,0E0,0E0,0E0,0E0],"parents":[2147483647,0,0,1,1,2,2,5,5,6,6],"right_children":[2,4,6,-1,-1,8,10,-1,-1,-1,-1],"split_conditions":[5.0178E4,9E0,1E0,3.0015571E-2,5.830909E-4,9E0,9.9351E4,8.90384E-3,-4.4232573E-2,-6.4221695E-3,4.8411634E-2],"split_indices":[5,8,2,0,0,6,5,0,0,0,0],"split_type":[0,0,0,0,0,0,0,0,0,0,0],"sum_hessian":[1.1253612E1,2.149597E0,9.104014E0,1.0474646E0,1.1021323E0,4.169954E0,4.9340606E0,1.0568953E0,3.1130586E0,3.7511017E0,1.182959E0],"tree_param":{"num_deleted":"0","num_feature":"10","num_nodes":"11","size_leaf_vector":"1"}},{"base_weights":[-1.6201809E-2,-1.4140198E-1,1.0991131E-1,6.508224E-2,-5.928726E-2,-3.0797545E-2,2.851649E-1,2.9380886E-2,-3.8027637E-2,5.9941012E-2,-7.652912E-3],"categories":[],"categories_nodes":[],"categories_segments":[],"categories_sizes":[],"default_left":[0,0,0,0,0,0,0,0,0,0,0],"id":71,"left_children":[1,3,5,7,-1,-1,9,-1,-1,-1,-1],"loss_changes":[2.0795329E-1,6.494245E-1,5.7364213E-1,6.615229E-1,0E0,0E0,6.360899E-1,0E0,0E0,0E0,0E0],"parents":[2147483647,0,0,1,1,2,2,3,3,6,6],"right_children":[2,4,6,8,-1,-1,10,-1,-1,-1,-1],"split_conditions":[1.5E1,5E0,1E0,1E0,-5.928726E-2,-3.0797545E-2,6.2061E4,2.9380886E-2,-3.8027637E-2,5.9941012E-2,-7.652912E-3],"split_indices":[8,7,1,0,0,0,5,0,0,0,0],"split_type":[0,0,0,0,0,0,0,0,0,0,0],"sum_hessian":[1.1186137E1,5.552551E0,5.633587E0,4.3972654E0,1.1552855E0,1.4407796E0,4.192807E0,3.1300342E0,1.2672312E0,1.8918818E0,2.3009253E0],"tree_param":{"num_deleted":"0","num_feature":"10","num_nodes":"11","size_leaf_vector":"1"}},{"base_weights":[-1.881285E-2,-1.370991E-1,1.1342156E-1,6.116024E-2,-5.8442693E-2,-1.8074849E-1,3.4143996E-1,3.5697367E-2,-2.902455E-2,9.491905E-3,-3.4843512E-2,1.0981534E-2,4.9317844E-2],"categories":[],"categories_nodes":[],"categories_segments":[],"categories_sizes":[],"default_left":[0,0,0,0,0,0,0,0,0,0,0,0,0],"id":72,"left_children":[1,3,5,7,-1,9,11,-1,-1,-1,-1,-1,-1],"loss_changes":[2.0539154E-1,6.440593E-1,4.8281226E-1,6.917584E-1,0E0,1.900172E-1,8.230537E-2,0E0,0E0,0E0,0E0,0E0,0E0],"parents":[2147483647,0,0,1,1,2,2,3,3,5,5,6,6],"right_children":[2,4,6,8,-1,10,12,-1,-1,-1,-1,-1,-1],"split_conditions":[6.8407E4,6.2061E4,4E0,3.8E1,-5.8442693E-2,1E0,1E0,3.5697367E-2,-2.902455E-2,9.491905E-3,-3.4843512E-2,1.0981534E-2,4.9317844E-2],"split_indices":[5,5,3,9,0,0,0,0,0,0,0,0,0],"split_type":[0,0,0,0,0,0,0,0,0,0,0,0,0],"sum_hessian":[1.11370325E1,5.8591347E0,5.2778983E0,4.6579638E0,1.2011709E0,2.3951657E0,2.8827326E0,2.5204246E0,2.137539E0,1.0700357E0,1.32513E0,1.823272E0,1.0594606E0],"tree_param":{"num_deleted":"0","num_feature":"10","num_nodes":"13","size_leaf_vector":"1"}},{"base_weights":[-1.8718978E-2,-7.602045E-2,2.3424542E-2,-3.54741E-2,2.0013446E-2,-2.1665553E-2,2.0995533E-2],"categories":[],"categories_nodes":[],"categories_segments":[],"categories_sizes":[],"default_left":[0,0,0,0,0,0,0],"id":73,"left_children":[1,3,-1,-1,5,-1,-1],"loss_changes":[1.9290942E-1,2.9093188E-1,0E0,0E0,4.4257024E-1,0E0,0E0],"parents":[2147483647,0,0,1,1,4,4],"right_children":[2,4,-1,-1,6,-1,-1],"split_conditions":[5.6E1,9E0,2.3424542E-2,-3.54741E-2,1E0,-2.1665553E-2,2.0995533E-2],"split_indices":[9,8,0,0,2,0,0],"split_type":[0,0,0,0,0,0,0],"sum_hessian":[1.1079972E1,9.603965E0,1.4760076E0,1.7707571E0,7.8332076E0,3.424996E0,4.408211E0],"tree_param":{"num_deleted":"0","num_feature":"10","num_nodes":"7","size_leaf_vector":"1"}},{"base_weights":[-1.8111479E-2,3.704059E-2,-2.9513514E-2,-6.47835E-2,5.1564336E-2,-5.581984E-2,5.6298813E-3],"categories":[],"categories_nodes":[],"categories_segments":[],"categories_sizes":[],"default_left":[0,0,0,0,0,0,0],"id":74,"left_children":[1,3,-1,5,-1,-1,-1],"loss_changes":[1.9492173E-1,5.661332E-1,0E0,6.230199E-1,0E0,0E0,0E0],"parents":[2147483647,0,0,1,1,3,3],"right_children":[2,4,-1,6,-1,-1,-1],"split_conditions":[1.4092E5,1.00416E5,-2.9513514E-2,5E0,5.1564336E-2,-5.581984E-2,5.6298813E-3],"split_indices":[5,5,0,3,0,0,0],"split_type":[0,0,0,0,0,0,0],"sum_hessian":[1.1042453E1,9.931501E0,1.1109513E0,8.902179E0,1.0293232E0,1.0427716E0,7.859407E0],"tree_param":{"num_deleted":"0","num_feature":"10","num_nodes":"7","size_leaf_vector":"1"}},{"base_weights":[-1.884025E-2,-7.505938E-2,2.2755228E-2,1.0963046E-1,-2.0301981E-1,3.3437986E-2,-2.662443E-2,-6.000927E-2,1.7220339E-2],"categories":[],"categories_nodes":[],"categories_segments":[],"categories_sizes":[],"default_left":[0,0,0,0,0,0,0,0,0],"id":75,"left_children":[1,3,-1,5,7,-1,-1,-1,-1],"loss_changes":[1.834712E-1,2.7117065E-1,0E0,5.0803906E-1,1.0825688E0,0E0,0E0,0E0,0E0],"parents":[2147483647,0,0,1,1,3,3,4,4],"right_children":[2,4,-1,6,8,-1,-1,-1,-1],"split_conditions":[5.6E1,3.8E1,2.2755228E-2,6.2061E4,7.1707E4,3.3437986E-2,-2.662443E-2,-6.000927E-2,1.7220339E-2],"split_indices":[9,9,0,5,5,0,0,0,0],"split_type":[0,0,0,0,0,0,0,0,0],"sum_hessian":[1.10121E1,9.532456E0,1.4796438E0,3.9600391E0,5.5724173E0,2.5473063E0,1.4127328E0,2.4162116E0,3.1562057E0],"tree_param":{"num_deleted":"0","num_feature":"10","num_nodes":"9","size_leaf_vector":"1"}},{"base_weights":[-1.8503552E-2,3.5732146E-2,-2.8966365E-2,-6.0397163E-2,4.8136577E-2,-5.451895E-2,5.6440243E-3],"categories":[],"categories_nodes":[],"categories_segments":[],"categories_sizes":[],"default_left":[0,0,0,0,0,0,0],"id":76,"left_children":[1,3,-1,5,-1,-1,-1],"loss_changes":[1.8617447E-1,4.939983E-1,0E0,5.8675444E-1,0E0,0E0,0E0],"parents":[2147483647,0,0,1,1,3,3],"right_children":[2,4,-1,6,-1,-1,-1],"split_conditions":[1.4092E5,1.00416E5,-2.8966365E-2,5E0,4.8136577E-2,-5.451895E-2,5.6440243E-3],"split_indices":[5,5,0,3,0,0,0],"split_type":[0,0,0,0,0,0,0],"sum_hessian":[1.0955493E1,9.852987E0,1.1025062E0,8.815772E0,1.0372145E0,1.0000501E0,7.8157225E0],"tree_param":{"num_deleted":"0","num_feature":"10","num_nodes":"7","size_leaf_vector":"1"}},{"base_weights":[-1.9327449E-2,-1.4004187E-1,1.0190133E-1,5.557921E-2,-5.7252336E-2,-2.2950517E-2,3.1488043E-1,3.3192366E-2,-3.0597618E-2,4.7761615E-2,-2.7541786E-3],"categories":[],"categories_nodes":[],"categories_segments":[],"categories_sizes":[],"default_left":[0,0,0,0,0,0,0,0,0,0,0],"id":77,"left_children":[1,3,5,7,-1,-1,9,-1,-1,-1,-1],"loss_changes":[1.8880588E-1,5.730381E-1,5.331341E-1,6.327334E-1,0E0,0E0,2.5814876E-1,0E0,0E0,0E0,0E0],"parents":[2147483647,0,0,1,1,2,2,3,3,6,6],"right_children":[2,4,6,8,-1,-1,10,-1,-1,-1,-1],"split_conditions":[1.5E1,5E0,1E0,1E1,-5.7252336E-2,-2.2950517E-2,1.9E1,3.3192366E-2,-3.0597618E-2,4.7761615E-2,-2.7541786E-3],"split_indices":[8,7,0,8,0,0,8,0,0,0,0],"split_type":[0,0,0,0,0,0,0,0,0,0,0],"sum_hessian":[1.0926656E1,5.397184E0,5.5294714E0,4.3163085E0,1.0808758E0,2.1329288E0,3.3965423E0,2.4928935E0,1.823415E0,2.0347254E0,1.3618169E0],"tree_param":{"num_deleted":"0","num_feature":"10","num_nodes":"11","size_leaf_vector":"1"}},{"base_weights":[-2.049572E-2,-7.136047E-2,2.6370643E-2,1.9844218E-1,-1.9797279E-1,-1.665357E-2,4.027647E-2,-5.1950186E-2,1.5407056E-2],"categories":[],"categories_nodes":[],"categories_segments":[],"categories_sizes":[],"default_left":[0,0,0,0,0,0,0,0,0],"id":78,"left_children":[1,3,-1,5,7,-1,-1,-1,-1],"loss_changes":[1.9061458E-1,4.1051137E-1,0E0,3.6315277E-1,9.7390056E-1,0E0,0E0,0E0,0E0],"parents":[2147483647,0,0,1,1,3,3,4,4],"right_children":[2,4,-1,6,8,-1,-1,-1,-1],"split_conditions":[2E1,3.7E1,2.6370643E-2,3.5E1,7.4241E4,-1.665357E-2,4.027647E-2,-5.1950186E-2,1.5407056E-2],"split_indices":[8,9,0,9,5,0,0,0,0],"split_type":[0,0,0,0,0,0,0,0,0],"sum_hessian":[1.0884192E1,9.867142E0,1.017051E0,2.9703012E0,6.896841E0,1.1324185E0,1.8378826E0,3.3560286E0,3.5408123E0],"tree_param":{"num_deleted":"0","num_feature":"10","num_nodes":"9","size_leaf_vector":"1"}},{"base_weights":[-1.7762596E-2,-1.2987234E-1,1.14979945E-1,5.010106E-2,-5.5781364E-2,-1.6279602E-1,3.2646564E-1,-2.2892809E-2,1.817325E-2,-3.7229598E-2,1.4842271E-2,-6.418604E-3,5.7146933E-2],"categories":[],"categories_nodes":[],"categories_segments":[],"categories_sizes":[],"default_left":[0,0,0,0,0,0,0,0,0,0,0,0,0],"id":79,"left_children":[1,3,5,7,-1,9,11,-1,-1,-1,-1,-1,-1],"loss_changes":[1.9074199E-1,5.573863E-1,4.0206954E-1,2.5304127E-1,0E0,2.6615784E-1,3.9127886E-1,0E0,0E0,0E0,0E0,0E0,0E0],"parents":[2147483647,0,0,1,1,2,2,3,3,5,5,6,6],"right_children":[2,4,6,8,-1,10,12,-1,-1,-1,-1,-1,-1],"split_conditions":[4.6E1,3.9E1,1E0,3.5E1,-5.5781364E-2,5.6E1,1.4E1,-2.2892809E-2,1.817325E-2,-3.7229598E-2,1.4842271E-2,-6.418604E-3,5.7146933E-2],"split_indices":[9,9,2,9,0,9,8,0,0,0,0,0,0],"split_type":[0,0,0,0,0,0,0,0,0,0,0,0,0],"sum_hessian":[1.0813765E1,5.8742228E0,4.939542E0,4.756692E0,1.1175311E0,2.2346573E0,2.7048845E0,1.2877631E0,3.4689288E0,1.2182969E0,1.0163604E0,1.327015E0,1.3778696E0],"tree_param":{"num_deleted":"0","num_feature":"10","num_nodes":"13","size_leaf_vector":"1"}},{"base_weights":[-1.9047242E-2,1.9287653E-1,-8.435034E-2,3.1946704E-2,-2.3163334E-3,-4.1801717E-2,4.650537E-2,-1.9126821E-2,1.831751E-2],"categories":[],"categories_nodes":[],"categories_segments":[],"categories_sizes":[],"default_left":[0,0,0,0,0,0,0,0,0],"id":80,"left_children":[1,3,5,-1,-1,-1,7,-1,-1],"loss_changes":[1.7894728E-1,9.14478E-2,4.421601E-1,0E0,0E0,0E0,2.902687E-1,0E0,0E0],"parents":[2147483647,0,0,1,1,2,2,6,6],"right_children":[2,4,6,-1,-1,-1,8,-1,-1],"split_conditions":[5.0178E4,9E0,6.1422E4,3.1946704E-2,-2.3163334E-3,-4.1801717E-2,4E0,-1.9126821E-2,1.831751E-2],"split_indices":[5,8,5,0,0,0,3,0,0],"split_type":[0,0,0,0,0,0,0,0,0],"sum_hessian":[1.0754807E1,2.0732074E0,8.681601E0,1.0053643E0,1.0678432E0,1.827415E0,6.8541856E0,2.355927E0,4.4982586E0],"tree_param":{"num_deleted":"0","num_feature":"10","num_nodes":"9","size_leaf_vector":"1"}},{"base_weights":[-1.8447805E-2,-7.423151E-2,2.2127546E-2,-3.1063414E-1,2.6470615E-2,-5.569735E-2,8.334838E-3,-2.0805595E-2,2.6968328E-2],"categories":[],"categories_nodes":[],"categories_segments":[],"categories_sizes":[],"default_left":[0,0,0,0,0,0,0,0,0],"id":81,"left_children":[1,3,-1,5,7,-1,-1,-1,-1],"loss_changes":[1.733309E-1,2.5264537E-1,0E0,3.5171393E-1,5.1936215E-1,0E0,0E0,0E0,0E0],"parents":[2147483647,0,0,1,1,3,3,4,4],"right_children":[2,4,-1,6,8,-1,-1,-1,-1],"split_conditions":[5.6E1,1.6E1,2.2127546E-2,5E1,1E0,-5.569735E-2,8.334838E-3,-2.0805595E-2,2.6968328E-2],"split_indices":[9,6,0,9,0,0,0,0,0],"split_type":[0,0,0,0,0,0,0,0,0],"sum_hessian":[1.0733295E1,9.267167E0,1.4661286E0,2.1455984E0,7.1215687E0,1.0656159E0,1.0799824E0,3.699115E0,3.4224536E0],"tree_param":{"num_deleted":"0","num_feature":"10","num_nodes":"9","size_leaf_vector":"1"}},{"base_weights":[-1.8515043E-2,1.8251686E-1,-8.099732E-2,3.0518416E-2,-2.5826122E-3,-2.9590616E-1,1.1665567E-1,7.174406E-3,-4.1231245E-2,-5.7595815E-3,4.3414928E-2],"categories":[],"categories_nodes":[],"categories_segments":[],"categories_sizes":[],"default_left":[0,0,0,0,0,0,0,0,0,0,0],"id":82,"left_children":[1,3,5,-1,-1,7,9,-1,-1,-1,-1],"loss_changes":[1.6156052E-1,8.654765E-2,4.426052E-1,0E0,0E0,2.3866114E-1,3.4155238E-1,0E0,0E0,0E0,0E0],"parents":[2147483647,0,0,1,1,2,2,5,5,6,6],"right_children":[2,4,6,-1,-1,8,10,-1,-1,-1,-1],"split_conditions":[5.0178E4,9E0,1E0,3.0518416E-2,-2.5826122E-3,1E1,9.9351E4,7.174406E-3,-4.1231245E-2,-5.7595815E-3,4.3414928E-2],"split_indices":[5,8,2,0,0,6,5,0,0,0,0],"split_type":[0,0,0,0,0,0,0,0,0,0,0],"sum_hessian":[1.0685213E1,2.0780735E0,8.60714E0,1.0154091E0,1.0626644E0,3.8854146E0,4.7217255E0,1.0266341E0,2.8587804E0,3.5770879E0,1.1446376E0],"tree_param":{"num_deleted":"0","num_feature":"10","num_nodes":"11","size_leaf_vector":"1"}},{"base_weights":[-1.4215717E-2,3.7009884E-2,-2.7030423E-2,-5.3574692E-2,4.4701587E-2,-2.4907397E-2,1.1849043E-2],"categories":[],"categories_nodes":[],"categories_segments":[],"categories_sizes":[],"default_left":[0,0,0,0,0,0,0],"id":83,"left_children":[1,3,-1,5,-1,-1,-1],"loss_changes":[1.6253383E-1,4.1647303E-1,0E0,3.5073552E-1,0E0,0E0,0E0],"parents":[2147483647,0,0,1,1,3,3],"right_children":[2,4,-1,6,-1,-1,-1],"split_conditions":[1.4092E5,1.00416E5,-2.7030423E-2,1.5E1,4.4701587E-2,-2.4907397E-2,1.1849043E-2],"split_indices":[5,5,0,8,0,0,0],"split_type":[0,0,0,0,0,0,0],"sum_hessian":[1.0627272E1,9.568714E0,1.0585576E0,8.549225E0,1.0194892E0,3.7925723E0,4.7566524E0],"tree_param":{"num_deleted":"0","num_feature":"10","num_nodes":"7","size_leaf_vector":"1"}},{"base_weights":[-1.2545325E-2,-6.692547E-2,2.165906E-2,-3.039656E-1,3.282303E-2,-5.4595947E-2,7.914186E-3,-1.8914087E-2,2.5704935E-2],"categories":[],"categories_nodes":[],"categories_segments":[],"categories_sizes":[],"default_left":[0,0,0,0,0,0,0,0,0],"id":84,"left_children":[1,3,-1,5,7,-1,-1,-1,-1],"loss_changes":[1.5885064E-1,2.4942222E-1,0E0,3.3031204E-1,4.48279E-1,0E0,0E0,0E0,0E0],"parents":[2147483647,0,0,1,1,3,3,4,4],"right_children":[2,4,-1,6,8,-1,-1,-1,-1],"split_conditions":[5.6E1,1.6E1,2.165906E-2,5E1,1E0,-5.4595947E-2,7.914186E-3,-1.8914087E-2,2.5704935E-2],"split_indices":[9,6,0,9,0,0,0,0,0],"split_type":[0,0,0,0,0,0,0,0,0],"sum_hessian":[1.0585075E1,9.12693E0,1.4581449E0,2.0968065E0,7.0301237E0,1.0245543E0,1.0722522E0,3.6115186E0,3.4186053E0],"tree_param":{"num_deleted":"0","num_feature":"10","num_nodes":"9","size_leaf_vector":"1"}},{"base_weights":[-1.3104131E-2,1.8186505E-1,-7.47428E-2,3.0561162E-2,-2.812157E-3,-2.8532788E-1,1.1641041E-1,7.003836E-3,-3.9778475E-2,-4.8913443E-3,4.1427646E-2],"categories":[],"categories_nodes":[],"categories_segments":[],"categories_sizes":[],"default_left":[0,0,0,0,0,0,0,0,0,0,0],"id":85,"left_children":[1,3,5,-1,-1,7,9,-1,-1,-1,-1],"loss_changes":[1.5230463E-1,8.820762E-2,4.147637E-1,0E0,0E0,2.1967602E-1,2.9990906E-1,0E0,0E0,0E0,0E0],"parents":[2147483647,0,0,1,1,2,2,5,5,6,6],"right_children":[2,4,6,-1,-1,8,10,-1,-1,-1,-1],"split_conditions":[5.0178E4,9E0,1E0,3.0561162E-2,-2.812157E-3,1E1,9.9351E4,7.003836E-3,-3.9778475E-2,-4.8913443E-3,4.1427646E-2],"split_indices":[5,8,2,0,0,6,5,0,0,0,0],"split_type":[0,0,0,0,0,0,0,0,0,0,0],"sum_hessian":[1.0542326E1,2.063805E0,8.478521E0,1.0120254E0,1.0517797E0,3.799792E0,4.678729E0,1.0040786E0,2.7957134E0,3.5462499E0,1.1324793E0],"tree_param":{"num_deleted":"0","num_feature":"10","num_nodes":"11","size_leaf_vector":"1"}},{"base_weights":[-9.272343E-3,-1.9785748E-1,5.9543256E-2,8.326032E-3,-3.64471E-2,-9.8539576E-2,3.1074074E-1,8.452482E-3,-5.3883385E-2,4.1137017E-2,3.0008315E-3],"categories":[],"categories_nodes":[],"categories_segments":[],"categories_sizes":[],"default_left":[0,0,0,0,0,0,0,0,0,0,0],"id":86,"left_children":[1,3,5,-1,-1,7,9,-1,-1,-1,-1],"loss_changes":[1.608723E-1,1.850386E-1,3.95382E-1,0E0,0E0,5.611538E-1,9.4685376E-2,0E0,0E0,0E0,0E0],"parents":[2147483647,0,0,1,1,2,2,5,5,6,6],"right_children":[2,4,6,-1,-1,8,10,-1,-1,-1,-1],"split_conditions":[4E0,1E0,6.8407E4,8.326032E-3,-3.64471E-2,6.2061E4,7.4417E4,8.452482E-3,-5.3883385E-2,4.1137017E-2,3.0008315E-3],"split_indices":[3,0,5,0,0,5,5,0,0,0,0],"split_type":[0,0,0,0,0,0,0,0,0,0,0],"sum_hessian":[1.0488351E1,2.3027139E0,8.185637E0,1.0430729E0,1.2596409E0,5.39696E0,2.7886775E0,4.3827415E0,1.0142182E0,1.7102771E0,1.0784004E0],"tree_param":{"num_deleted":"0","num_feature":"10","num_nodes":"11","size_leaf_vector":"1"}},{"base_weights":[-1.1127787E-2,3.7614446E-2,-2.5620347E-2,-4.89564E-2,4.2523406E-2,1.8658388E-2,-1.8528624E-2],"categories":[],"categories_nodes":[],"categories_segments":[],"categories_sizes":[],"default_left":[0,0,0,0,0,0,0],"id":87,"left_children":[1,3,-1,5,-1,-1,-1],"loss_changes":[1.4657104E-1,3.7093097E-1,0E0,3.3723447E-1,0E0,0E0,0E0],"parents":[2147483647,0,0,1,1,3,3],"right_children":[2,4,-1,6,-1,-1,-1],"split_conditions":[1.4092E5,1.00416E5,-2.5620347E-2,3.7E1,4.2523406E-2,1.8658388E-2,-1.8528624E-2],"split_indices":[5,5,0,9,0,0,0],"split_type":[0,0,0,0,0,0,0],"sum_hessian":[1.0463201E1,9.43352E0,1.0296803E0,8.425476E0,1.0080436E0,2.953692E0,5.4717846E0],"tree_param":{"num_deleted":"0","num_feature":"10","num_nodes":"7","size_leaf_vector":"1"}},{"base_weights":[-8.640516E-3,-6.196472E-2,2.1270704E-2,-2.9556483E-2,3.523935E-2,-2.3703903E-2,2.0958483E-2],"categories":[],"categories_nodes":[],"categories_segments":[],"categories_sizes":[],"default_left":[0,0,0,0,0,0,0],"id":88,"left_children":[1,3,-1,-1,5,-1,-1],"loss_changes":[1.481077E-1,2.3717935E-1,0E0,0E0,4.268601E-1,0E0,0E0],"parents":[2147483647,0,0,1,1,4,4],"right_children":[2,4,-1,-1,6,-1,-1],"split_conditions":[5.6E1,1.6E1,2.1270704E-2,-2.9556483E-2,5.8273E4,-2.3703903E-2,2.0958483E-2],"split_indices":[9,6,0,0,5,0,0],"split_type":[0,0,0,0,0,0,0],"sum_hessian":[1.043144E1,8.986568E0,1.4448715E0,2.0409968E0,6.945572E0,2.5709229E0,4.374649E0],"tree_param":{"num_deleted":"0","num_feature":"10","num_nodes":"7","size_leaf_vector":"1"}},{"base_weights":[-8.879173E-3,1.8152313E-1,-7.029908E-2,2.9781103E-2,-2.1399038E-3,-2.739388E-1,1.1292862E-1,-4.676349E-2,-3.492979E-3,-4.3391413E-3,3.9170746E-2],"categories":[],"categories_nodes":[],"categories_segments":[],"categories_sizes":[],"default_left":[0,0,0,0,0,0,0,0,0,0,0],"id":89,"left_children":[1,3,5,-1,-1,7,9,-1,-1,-1,-1],"loss_changes":[1.4625843E-1,7.866121E-2,3.798821E-1,0E0,0E0,2.0223385E-1,2.6238063E-1,0E0,0E0,0E0,0E0],"parents":[2147483647,0,0,1,1,2,2,5,5,6,6],"right_children":[2,4,6,-1,-1,8,10,-1,-1,-1,-1],"split_conditions":[5.0178E4,9E0,1E0,2.9781103E-2,-2.1399038E-3,1.6E1,9.9351E4,-4.676349E-2,-3.492979E-3,-4.3391413E-3,3.9170746E-2],"split_indices":[5,8,2,0,0,8,5,0,0,0,0],"split_type":[0,0,0,0,0,0,0,0,0,0,0],"sum_hessian":[1.041542E1,2.0634036E0,8.3520155E0,1.0144463E0,1.0489575E0,3.721196E0,4.63082E0,1.5270759E0,2.19412E0,3.5080807E0,1.1227391E0],"tree_param":{"num_deleted":"0","num_feature":"10","num_nodes":"11","size_leaf_vector":"1"}},{"base_weights":[-7.0643458E-3,-1.8714172E-1,5.7934016E-2,8.475706E-3,-3.5246383E-2,-9.202329E-2,2.933593E-1,1.3377185E-2,-3.3582665E-2,7.4915076E-3,4.464185E-2],"categories":[],"categories_nodes":[],"categories_segments":[],"categories_sizes":[],"default_left":[0,0,0,0,0,0,0,0,0,0,0],"id":90,"left_children":[1,3,5,-1,-1,7,9,-1,-1,-1,-1],"loss_changes":[1.4408156E-1,1.7620999E-1,3.492461E-1,0E0,0E0,3.93793E-1,9.329417E-2,0E0,0E0,0E0,0E0],"parents":[2147483647,0,0,1,1,2,2,5,5,6,6],"right_children":[2,4,6,-1,-1,8,10,-1,-1,-1,-1],"split_conditions":[4E0,1E0,6.8407E4,8.475706E-3,-3.5246383E-2,3.8E1,1E0,1.3377185E-2,-3.3582665E-2,7.4915076E-3,4.464185E-2],"split_indices":[3,0,5,0,0,9,0,0,0,0,0],"split_type":[0,0,0,0,0,0,0,0,0,0,0],"sum_hessian":[1.0383403E1,2.2554696E0,8.1279335E0,1.0371051E0,1.2183645E0,5.3373537E0,2.79058E0,3.0053253E0,2.3320284E0,1.7633705E0,1.0272096E0],"tree_param":{"num_deleted":"0","num_feature":"10","num_nodes":"11","size_leaf_vector":"1"}},{"base_weights":[-6.0604354E-3,-1.09304674E-1,1.12737894E-1,9.333614E-2,-4.311009E-2,-1.4813915E-1,3.0632046E-1,2.9170914E-2,-2.4827791E-2,1.27870655E-2,-3.3904802E-2,-6.1891777E-3,5.3007532E-2],"categories":[],"categories_nodes":[],"categories_segments":[],"categories_sizes":[],"default_left":[0,0,0,0,0,0,0,0,0,0,0,0,0],"id":91,"left_children":[1,3,5,7,-1,9,11,-1,-1,-1,-1,-1,-1],"loss_changes":[1.514882E-1,4.6920177E-1,3.3667055E-1,4.016702E-1,0E0,2.0833483E-1,3.3245987E-1,0E0,0E0,0E0,0E0,0E0,0E0],"parents":[2147483647,0,0,1,1,2,2,3,3,5,5,6,6],"right_children":[2,4,6,8,-1,10,12,-1,-1,-1,-1,-1,-1],"split_conditions":[4.6E1,3.8E1,1E0,6.2061E4,-4.311009E-2,1E0,1.4E1,2.9170914E-2,-2.4827791E-2,1.27870655E-2,-3.3904802E-2,-6.1891777E-3,5.3007532E-2],"split_indices":[9,9,2,5,0,1,8,0,0,0,0,0,0],"split_type":[0,0,0,0,0,0,0,0,0,0,0,0,0],"sum_hessian":[1.0346323E1,5.5782976E0,4.7680254E0,3.8584902E0,1.7198075E0,2.1309927E0,2.637033E0,2.53343E0,1.32506E0,1.0063074E0,1.1246853E0,1.2701923E0,1.3668406E0],"tree_param":{"num_deleted":"0","num_feature":"10","num_nodes":"13","size_leaf_vector":"1"}},{"base_weights":[-6.855284E-3,-6.0536403E-2,2.143604E-2,-2.8422704E-2,3.298112E-2,-1.8316833E-2,2.4933893E-2],"categories":[],"categories_nodes":[],"categories_segments":[],"categories_sizes":[],"default_left":[0,0,0,0,0,0,0],"id":92,"left_children":[1,3,-1,-1,5,-1,-1],"loss_changes":[1.4707285E-1,2.1577948E-1,0E0,0E0,4.1296884E-1,0E0,0E0],"parents":[2147483647,0,0,1,1,4,4],"right_children":[2,4,-1,-1,6,-1,-1],"split_conditions":[5.6E1,1.6E1,2.143604E-2,-2.8422704E-2,1E0,-1.8316833E-2,2.4933893E-2],"split_indices":[9,6,0,0,0,0,0],"split_type":[0,0,0,0,0,0,0],"sum_hessian":[1.0292216E1,8.866887E0,1.4253292E0,2.0128732E0,6.854014E0,3.5053952E0,3.3486185E0],"tree_param":{"num_deleted":"0","num_feature":"10","num_nodes":"7","size_leaf_vector":"1"}},{"base_weights":[-6.33295E-3,-1.0467677E-1,1.06331594E-1,8.3436966E-2,-4.08594E-2,-1.4312305E-1,2.9190272E-1,2.6850242E-2,-2.3864673E-2,1.229095E-2,-3.2894127E-2,-5.9833974E-3,5.04311E-2],"categories":[],"categories_nodes":[],"categories_segments":[],"categories_sizes":[],"default_left":[0,0,0,0,0,0,0,0,0,0,0,0,0],"id":93,"left_children":[1,3,5,7,-1,9,11,-1,-1,-1,-1,-1,-1],"loss_changes":[1.3589443E-1,4.066323E-1,3.0768523E-1,3.5348928E-1,0E0,1.9472861E-1,3.0084497E-1,0E0,0E0,0E0,0E0,0E0,0E0],"parents":[2147483647,0,0,1,1,2,2,3,3,5,5,6,6],"right_children":[2,4,6,8,-1,10,12,-1,-1,-1,-1,-1,-1],"split_conditions":[4.6E1,3.8E1,1E0,6.2061E4,-4.08594E-2,1E0,1.4E1,2.6850242E-2,-2.3864673E-2,1.229095E-2,-3.2894127E-2,-5.9833974E-3,5.04311E-2],"split_indices":[9,9,2,5,0,1,8,0,0,0,0,0,0],"split_type":[0,0,0,0,0,0,0,0,0,0,0,0,0],"sum_hessian":[1.0260428E1,5.5162473E0,4.744181E0,3.855373E0,1.6608741E0,2.1213253E0,2.6228561E0,2.5541482E0,1.3012248E0,1.011594E0,1.1097311E0,1.2579935E0,1.3648627E0],"tree_param":{"num_deleted":"0","num_feature":"10","num_nodes":"13","size_leaf_vector":"1"}},{"base_weights":[-7.1688695E-3,-1.1057201E-1,1.0537173E-1,1.5911359E-1,-2.771067E-1,3.711268E-2,-9.458684E-2,2.8810088E-2,-4.654747E-3,2.317049E-3,-5.7785153E-2,2.4821924E-2,-4.2458754E-2],"categories":[],"categories_nodes":[],"categories_segments":[],"categories_sizes":[],"default_left":[0,0,0,0,0,0,0,0,0,0,0,0,0],"id":94,"left_children":[1,3,5,7,9,-1,11,-1,-1,-1,-1,-1,-1],"loss_changes":[1.4208634E-1,3.283577E-1,3.4752467E-1,9.436233E-2,3.997035E-1,0E0,5.750696E-1,0E0,0E0,0E0,0E0,0E0,0E0],"parents":[2147483647,0,0,1,1,2,2,3,3,4,4,6,6],"right_children":[2,4,6,8,10,-1,12,-1,-1,-1,-1,-1,-1],"split_conditions":[6.8407E4,5.0178E4,7.4417E4,9E0,3.8E1,3.711268E-2,1.1E1,2.8810088E-2,-4.654747E-3,2.317049E-3,-5.7785153E-2,2.4821924E-2,-4.2458754E-2],"split_indices":[5,5,5,8,9,0,8,0,0,0,0,0,0],"split_type":[0,0,0,0,0,0,0,0,0,0,0,0,0],"sum_hessian":[1.020861E1,5.329405E0,4.8792043E0,2.0516055E0,3.2777996E0,1.7273932E0,3.1518114E0,1.0144844E0,1.0371212E0,2.1020122E0,1.1757873E0,1.6674645E0,1.484347E0],"tree_param":{"num_deleted":"0","num_feature":"10","num_nodes":"13","size_leaf_vector":"1"}},{"base_weights":[-7.830559E-3,-2.3337953E-2,4.155353E-2,3.4156714E-2,-6.485051E-2,-3.6210757E-2,8.942618E-3],"categories":[],"categories_nodes":[],"categories_segments":[],"categories_sizes":[],"default_left":[0,0,0,0,0,0,0],"id":95,"left_children":[1,-1,3,-1,5,-1,-1],"loss_changes":[1.3396509E-1,0E0,3.4142292E-1,0E0,4.095052E-1,0E0,0E0],"parents":[2147483647,0,0,2,2,4,4],"right_children":[2,-1,4,-1,6,-1,-1],"split_conditions":[5E0,-2.3337953E-2,1E1,3.4156714E-2,1.5E1,-3.6210757E-2,8.942618E-3],"split_indices":[8,0,8,0,8,0,0],"split_type":[0,0,0,0,0,0,0],"sum_hessian":[1.0156528E1,1.1551012E0,9.001428E0,1.778036E0,7.2233915E0,2.0077572E0,5.2156343E0],"tree_param":{"num_deleted":"0","num_feature":"10","num_nodes":"7","size_leaf_vector":"1"}},{"base_weights":[-8.655657E-3,-5.995325E-2,2.0114638E-2,-2.6247516E-1,5.124229E-2,6.211538E-3,-4.516128E-2,4.2752463E-2,-1.052367E-2],"categories":[],"categories_nodes":[],"categories_segments":[],"categories_sizes":[],"default_left":[0,0,0,0,0,0,0,0,0],"id":96,"left_children":[1,3,-1,5,7,-1,-1,-1,-1],"loss_changes":[1.3200232E-1,2.3246361E-1,0E0,2.497085E-1,4.63925E-1,0E0,0E0,0E0,0E0],"parents":[2147483647,0,0,1,1,3,3,4,4],"right_children":[2,4,-1,6,8,-1,-1,-1,-1],"split_conditions":[5.6E1,5.837E4,2.0114638E-2,4.7414E4,6.2061E4,6.211538E-3,-4.516128E-2,4.2752463E-2,-1.052367E-2],"split_indices":[9,5,0,5,5,0,0,0,0],"split_type":[0,0,0,0,0,0,0,0,0],"sum_hessian":[1.01446905E1,8.725503E0,1.4191878E0,2.6104932E0,6.1150093E0,1.2083524E0,1.4021409E0,1.2873023E0,4.8277073E0],"tree_param":{"num_deleted":"0","num_feature":"10","num_nodes":"9","size_leaf_vector":"1"}},{"base_weights":[-6.742855E-3,-1.0593577E-1,1.0058987E-1,1.5950188E-1,-2.7300537E-1,-1.5404935E-1,2.8516728E-1,2.7788585E-2,-3.6980708E-3,1.4772025E-3,-5.6431152E-2,2.124216E-3,-2.6133215E-2,7.2587365E-3,4.3261424E-2],"categories":[],"categories_nodes":[],"categories_segments":[],"categories_sizes":[],"default_left":[0,0,0,0,0,0,0,0,0,0,0,0,0,0,0],"id":97,"left_children":[1,3,5,7,9,11,13,-1,-1,-1,-1,-1,-1,-1,-1],"loss_changes":[1.289903E-1,3.2130677E-1,3.189428E-1,8.1236124E-2,3.614982E-1,6.400351E-2,8.592081E-2,0E0,0E0,0E0,0E0,0E0,0E0,0E0,0E0],"parents":[2147483647,0,0,1,1,2,2,3,3,4,4,5,5,6,6],"right_children":[2,4,6,8,10,12,14,-1,-1,-1,-1,-1,-1,-1,-1],"split_conditions":[6.8407E4,5.0178E4,4E0,9E0,3.8E1,1.4E1,1E0,2.7788585E-2,-3.6980708E-3,1.4772025E-3,-5.6431152E-2,2.124216E-3,-2.6133215E-2,7.2587365E-3,4.3261424E-2],"split_indices":[5,5,3,8,9,6,0,0,0,0,0,0,0,0,0],"split_type":[0,0,0,0,0,0,0,0,0,0,0,0,0,0,0],"sum_hessian":[1.0114697E1,5.2634387E0,4.851259E0,2.0506668E0,3.212772E0,2.10821E0,2.7430491E0,1.0211215E0,1.0295452E0,2.0937123E0,1.1190596E0,1.1048964E0,1.0033137E0,1.7345607E0,1.0084883E0],"tree_param":{"num_deleted":"0","num_feature":"10","num_nodes":"15","size_leaf_vector":"1"}},{"base_weights":[-6.6695805E-3,-2.2587916E-2,4.1005164E-2,3.182372E-2,-5.8695808E-2,-3.3575173E-2,8.230302E-3],"categories":[],"categories_nodes":[],"categories_segments":[],"categories_sizes":[],"default_left":[0,0,0,0,0,0,0],"id":98,"left_children":[1,-1,3,-1,5,-1,-1],"loss_changes":[1.24986954E-1,0E0,2.9346827E-1,0E0,3.4625468E-1,0E0,0E0],"parents":[2147483647,0,0,2,2,4,4],"right_children":[2,-1,4,-1,6,-1,-1],"split_conditions":[5E0,-2.2587916E-2,1E1,3.182372E-2,1.5E1,-3.3575173E-2,8.230302E-3],"split_indices":[8,0,8,0,8,0,0],"split_type":[0,0,0,0,0,0,0],"sum_hessian":[1.0073332E1,1.131723E0,8.941609E0,1.7853329E0,7.156276E0,1.9477682E0,5.208508E0],"tree_param":{"num_deleted":"0","num_feature":"10","num_nodes":"7","size_leaf_vector":"1"}},{"base_weights":[-7.571195E-3,-1.003667E-1,9.8203E-2,6.484053E-2,-3.774676E-2,-1.3836819E-1,2.7461433E-1,2.3597796E-2,-2.3319472E-2,1.2520114E-2,-3.2640368E-2,-6.940259E-3,4.803131E-2],"categories":[],"categories_nodes":[],"categories_segments":[],"categories_sizes":[],"default_left":[0,0,0,0,0,0,0,0,0,0,0,0,0],"id":99,"left_children":[1,3,5,7,-1,9,11,-1,-1,-1,-1,-1,-1],"loss_changes":[1.1844004E-1,3.168842E-1,2.7484694E-1,3.0265963E-1,0E0,1.9396847E-1,2.870956E-1,0E0,0E0,0E0,0E0,0E0,0E0],"parents":[2147483647,0,0,1,1,2,2,3,3,5,5,6,6],"right_children":[2,4,6,8,-1,10,12,-1,-1,-1,-1,-1,-1],"split_conditions":[4.6E1,3.8E1,1E0,6.2061E4,-3.774676E-2,1E0,1.4E1,2.3597796E-2,-2.3319472E-2,1.2520114E-2,-3.2640368E-2,-6.940259E-3,4.803131E-2],"split_indices":[9,9,2,5,0,1,8,0,0,0,0,0,0],"split_type":[0,0,0,0,0,0,0,0,0,0,0,0,0],"sum_hessian":[1.0062621E1,5.387394E0,4.6752276E0,3.8550322E0,1.5323619E0,2.0892076E0,2.5860198E0,2.5811238E0,1.2739084E0,1.0090228E0,1.0801849E0,1.2156051E0,1.3704146E0],"tree_param":{"num_deleted":"0","num_feature":"10","num_nodes":"13","size_leaf_vector":"1"}}]},"name":"gbtree"},"learner_model_param":{"base_score":"1.6296047E-1","boost_from_average":"1","num_class":"0","num_feature":"10","num_target":"1"},"objective":{"name":"binary:logistic","reg_loss_param":{"scale_pos_weight":"1"}}},"version":[2,1,3]}